anchor_index,anchor_label,weight
5830,-1,8.244105e-06
7929,-1,5.215153e-05
6508,-1,9.577796e-06
8844,-1,7.742523e-06
4973,-1,1.0189242e-05
7394,-1,5.215153e-05
10571,-1,9.731844e-06
10836,-1,5.215153e-05
3736,-1,8.2967845e-06
1887,-1,8.755333e-06
9595,-1,5.215153e-05
2385,-1,9.8169685e-06
8704,-1,9.158583e-06
7233,-1,5.215153e-05
974,-1,0.00017396953
312,-1,5.215153e-05
10142,-1,5.215153e-05
8723,-1,7.881441e-06
5580,1,0.0041231294
5137,-1,8.777947e-06
378,-1,2.3184348e-05
5674,-1,9.918311e-06
2037,-1,5.215153e-05
6158,-1,1.0103037e-05
5635,-1,8.610925e-06
4091,-1,5.22221e-05
10023,-1,5.1950687e-05
8888,-1,8.403291e-06
6629,-1,5.1950687e-05
2440,-1,1.0926458e-05
10226,-1,1.002237e-05
1839,-1,1.1061382e-05
2366,-1,5.1950687e-05
10475,-1,7.806725e-06
2198,-1,8.623376e-06
269,-1,8.563713e-06
6821,-1,8.077506e-06
507,-1,8.33149e-06
1914,-1,5.1950687e-05
10792,-1,7.615148e-05
3321,-1,9.841435e-06
8736,-1,5.1950687e-05
2940,-1,1.1010485e-05
4881,-1,8.090025e-06
4459,1,0.0035006937
4656,-1,1.2355985e-05
9376,-1,5.1950687e-05
5658,-1,5.1950687e-05
675,-1,8.237166e-06
10125,-1,8.288243e-06
4094,-1,1.0411562e-05
5659,-1,8.017017e-06
3515,-1,9.304266e-06
3862,-1,8.262941e-06
1014,-1,5.215265e-05
4460,1,0.0043779192
4087,-1,7.996674e-06
7838,-1,5.215265e-05
1569,-1,5.215265e-05
5542,-1,0.00017878764
11019,-1,8.495312e-06
9763,-1,1.2147671e-05
9687,-1,5.215265e-05
2553,-1,5.215265e-05
7553,-1,5.215265e-05
6730,-1,4.6129462e-05
1830,-1,5.215265e-05
2481,-1,7.827793e-06
7447,-1,9.528517e-06
5937,-1,5.215265e-05
2697,-1,8.098988e-06
4242,-1,5.215265e-05
4068,-1,5.215265e-05
6774,-1,8.7961735e-06
10083,-1,9.915056e-06
1932,-1,7.6136007e-06
1148,-1,5.231806e-05
2121,-1,5.1917825e-05
7117,-1,8.143265e-06
8826,-1,7.7035975e-06
8647,-1,8.540632e-06
785,-1,5.1917825e-05
5874,-1,8.677659e-06
8511,-1,5.1917825e-05
2990,-1,5.1917825e-05
2063,-1,8.919939e-06
7616,-1,7.983971e-06
8648,-1,5.1917825e-05
6753,-1,6.464226e-05
5085,-1,1.217315e-05
8807,-1,8.396418e-06
439,-1,8.449312e-06
7777,-1,5.1917825e-05
9050,-1,8.683354e-06
9842,-1,8.458278e-06
6082,-1,1.0027694e-05
3177,-1,9.806872e-06
212,-1,7.765876e-06
146,-1,1.2109351e-05
10316,-1,8.624387e-06
3900,-1,8.518538e-06
429,-1,8.151891e-06
7310,-1,9.2942e-06
10939,-1,7.909361e-06
3951,-1,9.600137e-06
7528,-1,8.818159e-05
10387,-1,9.219093e-06
4995,-1,8.479463e-06
758,-1,9.985924e-06
7954,-1,7.853582e-06
1135,-1,9.819797e-06
10274,-1,8.678271e-06
2128,-1,5.215153e-05
1883,-1,8.364298e-06
10072,-1,8.990037e-06
9195,-1,7.951745e-06
6294,-1,8.67521e-06
7544,-1,2.8639375e-05
2205,-1,9.276029e-06
1320,-1,8.27436e-06
6702,1,0.0035000588
11128,-1,8.935733e-06
10128,-1,9.097456e-06
3696,-1,8.730669e-06
2353,-1,5.215153e-05
5786,-1,5.215153e-05
826,-1,7.92775e-06
7035,-1,8.739074e-06
4643,-1,9.553202e-06
2863,-1,2.5542664e-05
4315,-1,8.8138495e-06
6064,-1,8.93143e-06
10393,-1,5.216113e-05
5346,-1,9.655596e-06
4962,-1,9.704014e-06
5816,-1,5.216113e-05
927,-1,5.216113e-05
9203,-1,9.2440705e-06
8461,-1,9.696539e-06
6988,-1,2.3135392e-05
3679,-1,5.216113e-05
1559,-1,1.4296068e-05
2009,-1,4.1038467e-05
3890,-1,7.8295025e-06
6770,-1,7.8286885e-06
9794,-1,5.216113e-05
6200,-1,3.6313835e-05
4547,-1,5.216113e-05
10932,-1,8.331633e-06
233,-1,8.675929e-06
6163,-1,9.505219e-06
4454,1,0.005933409
3844,-1,1.0066433e-05
8816,-1,9.044979e-06
2822,-1,8.216336e-06
7351,-1,5.228357e-05
3246,-1,8.8998e-06
3221,-1,9.811381e-06
66,-1,8.38927e-06
406,-1,8.199155e-06
3342,1,0.004945318
3978,-1,9.223245e-06
10793,-1,7.974451e-06
3692,-1,5.228357e-05
3359,-1,8.8465995e-06
3830,-1,5.228357e-05
3305,-1,5.012174e-05
2968,-1,8.9681225e-06
6295,-1,5.228357e-05
1369,-1,9.486147e-06
198,-1,9.335757e-06
572,-1,9.673033e-06
6539,-1,7.9955e-06
5777,-1,8.944659e-06
3488,-1,5.228357e-05
5064,-1,8.57535e-06
7213,-1,5.228357e-05
939,-1,9.198411e-06
4109,-1,8.2142915e-06
10150,-1,5.216108e-05
1208,-1,5.216113e-05
10105,-1,8.569596e-06
5687,-1,5.216113e-05
7150,-1,1.1503499e-05
5336,-1,7.8464705e-05
2695,-1,7.973592e-06
3613,-1,8.286924e-06
2665,-1,5.216113e-05
5283,-1,8.621533e-06
2211,-1,5.216113e-05
6405,-1,8.889783e-06
9341,-1,5.216113e-05
2858,-1,5.216113e-05
6635,-1,8.515582e-06
1740,-1,5.2870746e-05
3841,-1,2.1930045e-05
1616,-1,5.216113e-05
3588,-1,5.216113e-05
8601,-1,1.1038104e-05
1013,-1,8.445099e-06
10730,-1,7.762951e-06
1307,-1,1.0254056e-05
3592,-1,8.985785e-06
10989,-1,8.711323e-06
2497,-1,8.380626e-06
11085,-1,1.0191253e-05
138,-1,9.7467155e-06
9851,-1,5.228439e-05
6244,-1,3.9435123e-05
7502,-1,1.0187483e-05
6063,-1,5.228439e-05
4689,-1,5.228439e-05
10648,-1,5.228439e-05
2764,-1,5.228439e-05
10250,-1,0.00059186714
4220,-1,2.073066e-05
6717,-1,7.929852e-06
4382,-1,8.39701e-06
5199,-1,7.782016e-06
1966,-1,0.00012847157
9729,-1,1.0620902e-05
5798,-1,1.6862428e-05
2223,1,0.0060257115
6951,-1,4.1006137e-05
2705,-1,5.228439e-05
5448,-1,8.408237e-06
8557,-1,5.228439e-05
6068,-1,8.587405e-06
6036,-1,7.7270915e-06
1069,-1,5.228439e-05
2495,-1,9.461988e-06
2888,-1,8.683437e-06
4922,-1,9.482684e-06
6846,-1,1.0038966e-05
5624,-1,8.853385e-06
9964,-1,9.412793e-06
4081,-1,5.216113e-05
3758,-1,8.644265e-06
10220,-1,5.216113e-05
7498,-1,5.216113e-05
5410,-1,9.148867e-06
4484,-1,9.39646e-06
6058,-1,1.0059072e-05
393,-1,5.216113e-05
8465,-1,5.216113e-05
3706,-1,5.216113e-05
787,-1,9.324421e-06
6841,-1,0.0002573063
1443,-1,9.372868e-06
4767,-1,1.0576781e-05
8903,-1,5.216113e-05
3922,-1,8.4818e-06
5630,-1,8.419037e-06
396,-1,2.1577836e-05
2873,-1,8.57787e-06
5424,-1,5.216113e-05
10477,-1,5.2535775e-05
10766,-1,8.170859e-06
2847,-1,5.228474e-05
867,-1,5.228474e-05
10439,-1,5.228474e-05
3973,-1,5.228474e-05
1453,-1,9.841285e-06
6546,-1,9.101266e-06
7128,-1,8.122619e-06
8841,-1,5.228474e-05
5708,-1,8.6408445e-06
4297,-1,8.754764e-06
361,-1,9.342784e-06
9784,-1,0.00014841542
4365,-1,5.228474e-05
621,-1,8.993457e-06
1070,-1,8.148245e-06
6904,-1,1.0121958e-05
4163,-1,1.1088125e-05
1354,-1,8.4500225e-06
1910,-1,1.061011e-05
7542,-1,8.744985e-06
8849,-1,5.228474e-05
10396,-1,9.405076e-06
7171,-1,8.3432415e-06
9746,-1,4.431616e-05
4630,-1,1.4492035e-05
7900,-1,8.3820405e-06
9123,-1,5.2160933e-05
4154,-1,5.2160933e-05
2785,-1,9.285208e-06
424,-1,1.4090538e-05
2959,-1,9.205028e-06
6323,-1,9.003473e-06
4272,-1,3.554181e-05
1164,-1,5.2160933e-05
3051,-1,8.757887e-06
6520,-1,1.1757354e-05
1437,-1,8.37862e-06
2632,-1,9.657207e-06
5790,-1,7.81658e-06
10838,-1,8.695752e-06
3827,-1,9.788941e-06
6943,-1,9.048539e-05
5711,-1,9.840636e-06
3931,-1,8.669338e-06
7926,-1,9.106155e-06
8415,-1,1.1208744e-05
1352,-1,5.2160933e-05
1405,-1,8.868021e-06
10655,-1,1.4430423e-05
5160,-1,9.192527e-06
7441,-1,8.178171e-06
6215,-1,9.816716e-06
1242,-1,8.453246e-06
9506,-1,5.2284217e-05
2966,-1,9.106866e-06
5858,-1,9.1731035e-06
8471,-1,1.6415841e-05
3043,-1,5.2284217e-05
10801,-1,8.203464e-06
8656,-1,5.2284217e-05
8347,-1,5.2284217e-05
4182,-1,5.2284217e-05
6976,-1,8.6874215e-06
7736,-1,1.0261609e-05
7004,-1,1.0184724e-05
5055,-1,5.2284217e-05
9415,-1,8.493294e-06
4760,-1,8.6894515e-06
5460,-1,5.2284217e-05
5836,-1,9.267126e-06
6465,-1,8.157101e-06
6732,-1,5.2284217e-05
1778,-1,5.2284217e-05
11038,-1,8.239665e-06
6444,-1,1.1315038e-05
5752,-1,1.0893506e-05
10186,-1,5.2160933e-05
8458,-1,8.89874e-06
3000,-1,8.759424e-06
6246,-1,5.2160933e-05
7058,-1,8.515403e-06
3152,-1,1.0396222e-05
5850,-1,5.2160933e-05
978,-1,9.370947e-06
4090,-1,1.6603755e-05
9051,-1,1.2161686e-05
3047,-1,1.6514656e-05
6127,-1,1.16364345e-05
10270,-1,8.407756e-06
6184,-1,9.307079e-06
9304,-1,8.38436e-06
6293,-1,9.61676e-06
4758,-1,5.2160933e-05
1129,-1,5.2160933e-05
320,-1,5.2160933e-05
2812,-1,1.031457e-05
10077,-1,5.341452e-05
10877,-1,5.2160933e-05
959,-1,8.250649e-06
6321,-1,8.584957e-06
10759,-1,8.497977e-06
295,-1,1.21099865e-05
1513,-1,8.338994e-06
3801,-1,9.138029e-06
1275,-1,5.228474e-05
8110,-1,5.228474e-05
6792,-1,8.434274e-06
9402,-1,7.609224e-06
2197,-1,8.62303e-06
4853,-1,8.547868e-06
723,-1,5.228474e-05
8720,-1,8.015181e-06
1153,-1,8.626271e-06
2219,1,0.0089689195
5510,-1,8.536267e-06
4639,-1,8.150592e-06
3909,-1,1.1377853e-05
2672,-1,1.3975231e-05
4096,-1,9.039901e-06
7679,-1,5.228474e-05
5268,-1,9.14926e-06
2612,-1,7.910206e-06
5067,-1,5.228474e-05
5508,-1,1.0754299e-05
8183,-1,7.778878e-06
5261,-1,8.110295e-06
722,-1,5.1918716e-05
11064,-1,1.5089545e-05
8107,-1,5.1918716e-05
7604,-1,8.152512e-06
1323,-1,9.546881e-06
4226,-1,8.631448e-06
10417,-1,8.863008e-06
10783,-1,8.31337e-06
10842,-1,5.1918716e-05
9154,-1,5.1918716e-05
1429,-1,1.0142019e-05
9832,-1,9.806662e-05
2759,-1,9.514379e-06
5766,-1,9.633566e-06
10966,-1,5.1918716e-05
5489,-1,9.296514e-06
9482,-1,9.459804e-06
4287,-1,8.692643e-06
9783,-1,5.1918716e-05
5822,-1,9.161345e-06
6273,-1,5.1918716e-05
2754,-1,8.326946e-06
1552,-1,5.1918716e-05
5389,-1,7.9842075e-06
381,-1,5.1918716e-05
2357,-1,8.570388e-06
3938,-1,8.380682e-06
1972,-1,5.2153293e-05
5090,-1,8.718488e-06
1185,-1,5.2153293e-05
5852,-1,5.2153293e-05
10528,-1,9.2621785e-06
6932,-1,5.2153293e-05
5729,-1,1.1553094e-05
8252,-1,1.282476e-05
4701,-1,5.2153293e-05
10867,-1,5.2153293e-05
8141,-1,1.1432236e-05
8479,-1,2.6973556e-05
8076,-1,8.992051e-06
10905,-1,1.0018776e-05
9015,-1,5.2153293e-05
5640,-1,5.2153293e-05
10946,-1,8.871574e-06
4705,-1,5.2153293e-05
10249,-1,9.064556e-06
6175,-1,5.2153293e-05
1539,-1,8.782125e-06
1652,-1,8.331498e-06
4351,-1,7.841877e-06
3232,-1,9.449768e-06
343,-1,9.517193e-06
3717,-1,2.8510396e-05
3476,-1,9.414409e-06
9637,-1,1.1440274e-05
6603,-1,8.911666e-06
10913,-1,8.561884e-06
5707,-1,8.293525e-06
1359,-1,9.43016e-06
1533,-1,8.701069e-06
8350,-1,8.098023e-06
5565,-1,8.853673e-06
7069,-1,8.4106105e-06
2445,-1,7.935677e-06
276,-1,2.6172316e-05
9369,-1,7.861346e-06
5458,-1,8.98941e-06
6795,-1,9.210894e-06
3778,-1,9.149976e-06
9907,-1,5.195143e-05
9680,-1,5.195143e-05
3451,-1,8.631217e-06
10509,-1,5.195143e-05
4282,-1,5.195143e-05
3935,-1,5.195143e-05
2551,-1,8.905599e-06
4957,-1,2.3437433e-05
291,-1,9.186901e-06
5693,-1,1.3806305e-05
1288,-1,5.215252e-05
2430,-1,5.215252e-05
1747,-1,5.215252e-05
6731,-1,8.672836e-06
2322,-1,2.6259899e-05
1192,-1,8.044043e-06
9246,-1,9.552546e-06
2552,-1,8.12361e-06
8785,-1,5.215252e-05
2834,-1,8.1934095e-06
5588,1,0.003833106
3933,-1,5.215252e-05
2494,-1,8.900922e-06
8400,-1,9.2087685e-06
9624,-1,9.758433e-06
5024,-1,8.2789775e-06
10787,-1,5.215252e-05
10888,-1,8.341093e-06
8127,-1,5.215252e-05
188,-1,9.468532e-06
9375,-1,9.335134e-06
277,-1,5.215252e-05
1664,-1,9.57366e-06
2437,-1,5.192134e-05
5769,-1,5.1918716e-05
9510,-1,8.426194e-06
5512,-1,9.328006e-06
6895,-1,5.1918716e-05
9207,-1,1.1405076e-05
9542,-1,8.006365e-06
3637,-1,7.824263e-06
4994,-1,8.84127e-06
2184,-1,5.1918716e-05
2157,-1,8.723344e-06
4008,-1,8.9406254e-05
7910,-1,8.831191e-06
9362,-1,5.1918716e-05
3918,-1,8.765558e-06
4276,-1,8.306792e-06
3372,-1,8.358851e-06
9852,-1,9.474277e-06
9286,-1,8.710758e-06
3502,-1,5.1918716e-05
5887,-1,2.0533691e-05
6428,-1,8.264769e-06
122,-1,5.1918716e-05
2454,-1,1.0377382e-05
14,-1,9.373243e-06
3756,-1,5.1918716e-05
6349,-1,1.0480059e-05
356,-1,0.00013974265
443,-1,9.3479175e-06
8341,-1,1.1893213e-05
555,-1,8.571835e-06
7372,-1,7.693994e-06
1855,-1,5.2152423e-05
6719,-1,8.4585845e-06
1037,-1,8.0492155e-06
5169,-1,7.637061e-06
10303,-1,9.06932e-06
9720,-1,0.0001310478
8672,-1,5.2152423e-05
3942,-1,7.811468e-06
2367,-1,9.360086e-06
4644,-1,8.293304e-06
3740,-1,5.2152423e-05
5625,-1,7.957935e-06
6532,-1,7.596767e-06
6576,-1,5.2152423e-05
6277,-1,3.5352277e-05
1981,-1,8.554669e-06
8810,-1,8.272852e-06
2113,-1,9.632749e-06
9167,-1,8.45777e-06
5040,-1,9.091334e-06
465,-1,5.195131e-05
1309,-1,9.670293e-06
6142,-1,8.805003e-06
2801,-1,5.195131e-05
6285,-1,5.195131e-05
257,-1,9.154533e-06
9135,-1,8.308821e-06
1869,-1,7.921273e-06
4233,-1,8.649592e-06
2692,-1,1.0460608e-05
4204,-1,1.1671133e-05
8588,-1,8.239099e-06
2623,-1,8.55901e-06
8901,-1,9.588452e-06
7862,-1,3.4886856e-05
4928,-1,9.234308e-06
4181,-1,9.078372e-06
6193,-1,5.195131e-05
9430,-1,5.195131e-05
262,-1,9.117982e-06
6404,-1,8.288757e-06
7138,-1,1.04077e-05
8334,-1,8.303338e-06
10429,-1,7.991566e-06
8912,-1,8.586136e-06
9380,-1,7.569785e-06
1777,-1,9.5386e-06
8292,-1,9.180499e-06
10326,-1,9.09796e-06
8065,-1,9.697492e-06
7855,-1,1.0716898e-05
3456,-1,8.427633e-06
8343,-1,9.763684e-06
6938,-1,5.2152274e-05
4811,-1,8.199811e-06
5016,-1,7.930328e-06
643,-1,6.931374e-05
915,-1,9.192299e-05
3917,-1,5.2152274e-05
8429,-1,5.2152274e-05
5041,-1,8.793984e-06
3384,-1,8.593525e-06
5080,-1,9.211193e-06
399,-1,5.2152274e-05
8753,-1,8.3249615e-06
1545,-1,5.2152274e-05
2358,-1,8.601486e-06
11179,1,0.004404711
1804,-1,8.289429e-06
464,-1,8.100355e-06
9464,-1,9.969928e-06
4017,-1,5.191829e-05
9026,-1,8.920764e-06
1175,-1,9.698684e-06
10744,-1,5.191829e-05
4925,-1,3.0347857e-05
3876,-1,8.451489e-06
5332,-1,8.562275e-06
1329,-1,5.191829e-05
2543,-1,9.186199e-06
2043,-1,8.760736e-06
7031,-1,1.033864e-05
2021,-1,8.303782e-06
7033,-1,8.359186e-06
8151,-1,8.8672605e-06
6663,-1,9.948833e-06
5182,-1,5.191829e-05
7442,-1,8.533679e-06
2028,-1,8.025768e-06
9124,-1,5.191829e-05
1397,-1,5.191829e-05
8634,-1,9.543941e-06
938,-1,8.091801e-06
1389,-1,8.863608e-06
725,-1,5.191829e-05
11147,-1,9.153145e-06
2152,-1,5.2013747e-05
3576,-1,5.2152423e-05
9231,-1,9.683037e-06
5430,-1,8.334279e-06
2583,-1,9.527417e-06
7810,1,0.005915926
7416,-1,8.537504e-06
1110,1,0.003916235
3784,-1,1.07506485e-05
5126,-1,8.557215e-06
8706,-1,4.669744e-05
1150,-1,7.888548e-06
9143,-1,1.0123822e-05
2813,-1,8.498448e-06
3712,-1,8.606959e-06
2243,-1,8.503506e-06
1772,-1,5.2152423e-05
841,-1,5.2152423e-05
3860,-1,1.4750464e-05
6128,-1,8.9789055e-06
341,-1,8.3247705e-06
6672,-1,8.6079945e-06
5372,-1,8.864317e-06
10191,-1,1.0387928e-05
3776,-1,5.2152423e-05
6529,-1,8.840721e-06
7724,-1,8.838589e-06
8530,-1,5.21613e-05
10419,-1,5.21613e-05
9259,-1,8.712619e-06
475,-1,8.735866e-06
6738,-1,3.6224803e-05
5582,1,0.015120784
4391,-1,5.21613e-05
4445,-1,7.754827e-06
4199,-1,5.698945e-05
4632,-1,0.00036163
9292,-1,1.0978841e-05
10922,-1,5.21613e-05
6235,-1,1.0620973e-05
9948,-1,8.179286e-06
1797,-1,5.21613e-05
8222,-1,8.738773e-06
231,-1,9.072106e-06
2033,-1,8.703625e-06
3966,-1,6.0988063e-05
4353,-1,8.730968e-06
2475,-1,8.049123e-06
2069,-1,9.755373e-06
11176,1,0.0038810524
6733,-1,9.955286e-06
6681,-1,9.079229e-06
8100,-1,5.287881e-05
7849,-1,9.196148e-06
5923,-1,8.365813e-06
8354,-1,0.000117104886
6029,-1,8.920024e-06
9845,-1,5.287881e-05
1029,-1,5.287881e-05
8242,-1,5.287881e-05
10432,-1,8.027642e-06
10110,-1,8.136706e-06
2190,-1,5.287881e-05
678,-1,8.865332e-06
8544,-1,9.619832e-06
6424,-1,7.994371e-06
4240,-1,1.8125007e-05
9034,-1,2.1073172e-05
8185,-1,7.247418e-05
9457,-1,5.287881e-05
9773,-1,5.287881e-05
6960,-1,9.489486e-06
4193,-1,9.539301e-06
7605,-1,5.287881e-05
1457,-1,9.24051e-06
7579,-1,8.780316e-06
2950,-1,8.686916e-06
3792,-1,5.272002e-05
9686,-1,5.27464e-05
4937,-1,5.27464e-05
6910,-1,9.34298e-06
7524,-1,5.27464e-05
7408,-1,9.632474e-06
4776,-1,8.716684e-06
8290,-1,7.88544e-06
1373,-1,1.0019713e-05
156,-1,1.04982255e-05
7279,-1,5.27464e-05
2330,-1,8.324358e-06
8356,-1,9.152629e-06
10559,-1,5.27464e-05
6861,-1,5.881307e-05
6742,-1,5.27464e-05
7780,-1,1.1644649e-05
7538,-1,7.814292e-06
7719,-1,1.8538107e-05
3004,-1,9.430125e-06
7352,-1,8.318787e-06
2728,-1,1.146052e-05
4652,-1,1.1473862e-05
1325,-1,8.3564755e-06
10653,-1,9.1081165e-06
3249,-1,5.27464e-05
2928,-1,8.677171e-06
7793,-1,1.7764032e-05
205,-1,2.1716307e-05
7630,-1,5.2831154e-05
7835,-1,7.795297e-06
1741,-1,8.2120505e-06
7048,-1,8.390886e-06
10296,-1,5.2831154e-05
8631,-1,8.729128e-06
2169,-1,5.2831154e-05
8265,-1,9.508827e-06
8953,-1,9.239496e-06
345,-1,8.469659e-06
689,-1,5.2831154e-05
5242,-1,8.6629325e-06
944,-1,0.0002522712
1562,-1,5.2831154e-05
5138,-1,8.486525e-06
1272,-1,8.395506e-06
1425,-1,9.089782e-06
4188,-1,9.513163e-06
3404,-1,9.815967e-06
8388,-1,8.885934e-06
565,-1,8.534493e-06
3730,-1,8.514761e-06
6775,-1,9.779712e-06
4344,-1,9.108847e-06
6369,-1,9.859312e-06
5446,-1,3.7086025e-05
2304,-1,8.5069205e-06
2264,-1,1.0494582e-05
6563,-1,9.254955e-06
593,-1,9.193071e-06
7692,-1,5.2746676e-05
3803,-1,8.873181e-06
4111,-1,9.129545e-06
4069,-1,5.2746676e-05
6470,-1,8.439287e-06
8996,-1,5.3631175e-05
407,-1,8.382489e-06
3658,-1,8.89119e-06
5898,-1,8.32832e-06
8193,-1,5.2746676e-05
4100,-1,5.2746676e-05
2983,-1,5.2746676e-05
4866,-1,1.5875697e-05
6933,-1,1.0719005e-05
1893,-1,8.492362e-06
8614,-1,9.212151e-06
7897,-1,1.3554524e-05
4026,-1,8.632221e-06
7993,-1,5.2879466e-05
8893,-1,5.2879466e-05
1528,-1,8.7036005e-06
7876,-1,1.0323182e-05
2901,-1,1.041464e-05
10593,-1,5.2879466e-05
4123,-1,5.2879466e-05
6691,1,0.0041587194
9353,-1,5.2879466e-05
9883,-1,5.2879466e-05
4721,-1,5.2879466e-05
2871,-1,9.453275e-06
4874,-1,5.2879466e-05
829,-1,8.576806e-06
9629,-1,1.7319842e-05
9390,-1,8.008817e-06
1611,-1,7.938848e-06
10826,-1,5.2879466e-05
684,-1,9.26322e-06
10943,-1,7.939174e-06
8362,-1,5.2879466e-05
2536,-1,8.31023e-06
1067,-1,1.0428754e-05
3783,-1,2.9565426e-05
1925,-1,8.519123e-06
806,-1,9.531835e-06
10644,-1,8.3528585e-06
10360,-1,8.582829e-06
1308,-1,8.628048e-06
7359,-1,1.721204e-05
7487,-1,5.2748037e-05
4647,-1,6.0668597e-05
347,-1,0.00021408865
3176,-1,1.9428851e-05
6524,-1,5.2748037e-05
1287,-1,8.985245e-06
9462,-1,8.156564e-06
6787,-1,0.00023419136
10944,-1,8.726398e-06
2346,-1,5.2748037e-05
2302,-1,5.2748037e-05
8083,-1,8.744843e-06
1506,-1,8.652504e-06
1044,-1,5.2748037e-05
3480,-1,9.1709335e-06
7992,-1,1.0422559e-05
7250,-1,5.2748037e-05
10273,-1,9.345689e-06
4964,-1,9.662347e-06
1965,-1,8.175387e-06
7325,-1,5.2748037e-05
5743,-1,8.715445e-06
7326,-1,5.283133e-05
6018,-1,5.283133e-05
4627,-1,7.9681495e-06
5818,-1,9.378224e-06
2331,-1,7.909308e-06
2963,-1,8.525284e-06
5293,-1,8.340847e-06
2533,-1,5.283133e-05
1147,-1,8.130702e-06
5686,-1,8.630978e-06
4263,-1,1.1877774e-05
9899,-1,7.965171e-06
1580,-1,5.283133e-05
9846,-1,5.283133e-05
2067,-1,7.949576e-06
3620,-1,5.283133e-05
6608,-1,5.283133e-05
1358,-1,5.283133e-05
7337,-1,8.487934e-06
5211,-1,5.283133e-05
6878,-1,7.846022e-06
11012,-1,1.00845355e-05
6927,-1,9.442084e-06
4187,-1,7.510271e-05
4011,-1,8.421976e-06
2012,-1,1.0141506e-05
1809,-1,8.556292e-06
7509,-1,8.48396e-06
8494,-1,5.2747786e-05
5869,-1,5.2747786e-05
6944,-1,5.2747786e-05
9963,-1,1.4975237e-05
294,-1,9.116999e-06
3429,-1,1.471536e-05
410,-1,1.6255079e-05
8008,-1,8.706664e-06
113,-1,5.2747786e-05
535,-1,8.615419e-06
11118,-1,5.2747786e-05
1155,-1,8.143584e-06
7467,-1,9.724905e-06
8696,-1,8.351178e-06
5638,-1,9.0426765e-06
1651,-1,4.1475105e-05
6280,-1,8.4991925e-06
9678,-1,8.986822e-06
10967,-1,5.2747786e-05
2783,-1,5.2747786e-05
1943,-1,9.511076e-06
5445,-1,9.741501e-06
3831,-1,5.294744e-05
7034,-1,5.2879466e-05
11135,-1,8.040998e-06
8843,-1,8.2789375e-06
7778,-1,9.772907e-06
9728,-1,8.778249e-06
9826,-1,9.4110155e-06
11097,-1,5.2879466e-05
7347,-1,8.468488e-06
5046,-1,8.6893515e-06
3341,1,0.008951383
9906,-1,3.2448796e-05
11159,1,0.0037541117
7116,-1,8.708034e-06
317,-1,8.020717e-06
8043,-1,8.258144e-06
9100,-1,7.934148e-06
7504,-1,1.8369798e-05
7982,-1,5.2879466e-05
11142,-1,8.484818e-06
8165,-1,9.790229e-06
7775,-1,7.889788e-06
4763,-1,8.729028e-06
1483,-1,8.203746e-06
11098,-1,9.8004675e-06
5467,-1,8.806171e-05
1726,-1,8.151214e-06
9169,-1,9.246468e-06
9683,-1,8.603054e-06
5612,-1,8.38999e-06
3927,-1,9.566768e-06
9564,-1,9.620988e-06
8444,-1,1.1036756e-05
6854,-1,8.514639e-06
6111,-1,8.624798e-06
6659,-1,2.0189982e-05
7226,-1,5.191837e-05
7334,-1,0.00018053502
3991,-1,5.191837e-05
6328,-1,8.2846245e-06
4653,-1,8.103894e-06
7093,-1,1.0281044e-05
9515,-1,8.2543875e-06
1114,1,0.004536182
5651,-1,5.191837e-05
9548,-1,8.334256e-06
10554,-1,2.7175403e-05
3822,-1,3.8301907e-05
7446,-1,5.191837e-05
9255,-1,8.44688e-06
8870,-1,0.0002571141
7772,-1,8.530074e-06
2485,-1,5.2152573e-05
1400,-1,8.2969345e-06
7179,-1,8.344411e-06
479,-1,8.903027e-06
8434,-1,8.6515065e-06
3715,-1,5.2152573e-05
7015,-1,1.0487588e-05
5673,-1,0.0001970257
2065,-1,5.2152573e-05
6873,-1,8.743492e-06
4865,-1,1.0636765e-05
4483,-1,8.630048e-06
6580,-1,8.3676005e-06
2704,-1,1.7595225e-05
4693,-1,9.77408e-06
7418,-1,5.2152573e-05
2835,-1,5.2152573e-05
10892,-1,5.2152573e-05
10123,-1,1.0287193e-05
9227,-1,0.000114521565
5749,-1,5.2152573e-05
7781,-1,5.2152573e-05
8289,-1,5.2152573e-05
6384,-1,5.2152573e-05
2453,-1,8.210336e-06
7912,-1,7.3651113e-06
2798,-1,9.293021e-06
2527,-1,1.0323448e-05
6814,-1,5.1952447e-05
7222,-1,5.1952447e-05
2148,-1,8.85863e-06
8,-1,8.748421e-06
5173,-1,7.759532e-06
4492,-1,7.798554e-06
4845,-1,5.1952447e-05
8831,-1,8.344952e-06
6322,-1,1.43817815e-05
8742,-1,1.7297847e-05
9102,-1,1.0815043e-05
10510,-1,1.4567179e-05
2340,-1,2.3123603e-05
9038,-1,5.1952447e-05
3510,-1,9.323087e-06
4978,-1,7.5564913e-06
9631,-1,5.1952447e-05
489,-1,8.995997e-06
2398,-1,5.1952447e-05
10829,-1,5.1952447e-05
9547,-1,5.1952447e-05
8443,-1,1.1270752e-05
6763,-1,5.1624822e-05
7674,-1,3.2968717e-05
10452,-1,5.215282e-05
7765,-1,8.244553e-06
7237,-1,2.8539285e-05
274,-1,8.1135995e-06
10271,-1,8.753479e-06
7517,-1,8.564203e-06
8740,-1,8.419479e-06
2269,-1,5.215282e-05
8526,-1,8.378676e-06
8698,-1,8.784873e-06
585,-1,9.674684e-06
2587,-1,9.093657e-06
1998,-1,8.019073e-06
10248,-1,7.83293e-06
3275,-1,8.061299e-06
8306,-1,5.215282e-05
989,-1,5.215282e-05
2305,-1,1.0003853e-05
8577,-1,4.5414115e-05
4944,-1,2.5976928e-05
5620,-1,1.1153211e-05
9677,-1,5.215282e-05
8876,-1,8.755283e-06
9877,-1,9.269318e-06
3107,-1,9.2027985e-06
7317,-1,8.317002e-06
5824,-1,8.633192e-06
561,-1,5.191837e-05
4617,-1,5.191837e-05
3788,-1,8.807791e-06
10143,-1,5.191837e-05
8046,-1,5.191837e-05
521,-1,8.6944165e-06
9990,-1,9.182705e-06
5006,-1,5.191837e-05
5871,-1,8.045984e-06
10544,-1,1.0228984e-05
3115,-1,5.191837e-05
8155,-1,9.020308e-06
1027,-1,8.305429e-06
3919,-1,8.508e-06
5579,1,0.0058708014
9727,-1,8.264651e-06
7523,-1,9.597647e-06
10325,-1,5.191837e-05
4377,-1,8.374857e-06
6092,-1,8.699277e-06
5078,-1,2.9508725e-05
6838,-1,8.601093e-06
4636,-1,5.191837e-05
7867,-1,5.2151776e-05
7744,-1,7.757831e-06
8005,-1,7.892972e-06
6555,-1,8.104698e-06
5378,-1,7.814725e-06
5259,-1,0.0001212586
9267,-1,9.095028e-06
9366,-1,8.324794e-06
31,-1,9.4094175e-06
6398,-1,1.849657e-05
9453,-1,9.324199e-06
8394,-1,5.2151776e-05
2245,-1,5.2151776e-05
7400,-1,8.1052385e-06
6783,-1,5.2151776e-05
2323,-1,2.0458545e-05
1525,-1,8.947637e-06
912,-1,8.5072215e-06
174,-1,8.659802e-06
4830,-1,9.1718175e-06
2580,-1,1.32148625e-05
10040,1,0.006866363
1006,-1,8.308202e-06
10279,-1,9.440104e-06
7287,-1,8.728712e-06
202,-1,5.2222003e-05
8862,-1,2.6886824e-05
8965,-1,8.296223e-06
5420,-1,7.655882e-06
5913,-1,1.0882832e-05
1015,-1,5.19515e-05
9131,-1,7.774539e-06
9594,-1,8.35066e-06
5695,-1,7.861316e-06
1318,-1,8.37041e-06
5655,-1,8.498293e-06
9670,-1,9.499926e-06
8413,-1,9.7534285e-06
9847,-1,9.032739e-06
10874,-1,8.8148e-06
11037,-1,8.212803e-06
9711,-1,8.944464e-06
3095,-1,8.679199e-06
8167,-1,8.7453345e-06
12,-1,1.1335992e-05
8955,-1,9.134222e-06
5305,-1,9.168739e-06
6282,-1,5.19515e-05
9297,-1,5.19515e-05
9282,-1,5.19515e-05
226,-1,9.174941e-06
5052,-1,7.984702e-06
9949,-1,5.21521e-05
6378,-1,5.21521e-05
3554,-1,9.037874e-06
5672,-1,8.4971425e-06
7314,-1,1.0895824e-05
49,-1,9.855391e-06
730,-1,8.831932e-06
2512,-1,8.113978e-06
11175,1,0.0032616903
5000,-1,9.039202e-06
8756,-1,8.78205e-06
1258,-1,5.21521e-05
3689,-1,1.0079094e-05
1492,-1,1.0182383e-05
3396,-1,5.21521e-05
9666,-1,8.864089e-06
10217,-1,5.21521e-05
10006,-1,5.21521e-05
5479,-1,5.21521e-05
7817,1,0.004623949
2127,-1,8.1080225e-06
39,-1,5.21521e-05
9266,-1,0.00012492255
3289,-1,8.617645e-06
9105,-1,8.337745e-06
8528,-1,8.623128e-06
4368,-1,5.191733e-05
811,-1,8.07498e-06
6139,-1,5.191733e-05
2537,-1,8.335837e-06
4009,-1,8.319286e-06
3550,-1,8.662792e-06
1440,-1,9.974104e-06
3986,-1,8.393672e-06
1874,-1,5.191733e-05
9834,-1,5.191733e-05
1546,-1,8.348701e-06
6178,-1,1.0539405e-05
5166,-1,9.095227e-06
9491,-1,2.242961e-05
7172,-1,9.705207e-06
2342,-1,5.191733e-05
10313,-1,5.191733e-05
3348,1,0.0064277565
7268,-1,5.191733e-05
242,-1,7.795662e-06
4503,-1,7.4120608e-06
1978,-1,8.88718e-06
6203,-1,8.3961695e-06
3825,-1,5.191733e-05
5519,-1,8.826055e-06
10095,-1,8.345748e-06
7725,-1,8.589904e-06
4397,-1,5.2151776e-05
10034,-1,5.2151776e-05
4262,-1,5.2151776e-05
8721,-1,2.585576e-05
5194,-1,5.2151776e-05
3437,-1,9.847133e-06
1444,-1,1.0450468e-05
8345,-1,1.3616695e-05
4457,1,0.0041152057
4318,-1,8.56203e-06
6997,-1,8.525324e-06
2336,-1,9.773419e-06
2903,-1,8.556276e-06
8386,-1,1.0980924e-05
8226,-1,2.576137e-05
1683,-1,5.2151776e-05
8481,-1,3.364039e-05
10476,-1,2.2383232e-05
6703,1,0.0036309666
8998,-1,9.3385615e-06
7204,-1,9.84888e-06
8355,-1,5.2151776e-05
7943,-1,8.363133e-06
1682,-1,9.18712e-06
5968,-1,5.216108e-05
3121,-1,3.4243698e-05
6622,-1,9.784526e-06
11156,-1,8.164729e-06
8997,-1,8.399614e-06
8373,-1,8.300235e-06
9461,-1,5.216108e-05
7129,-1,8.997146e-06
1881,-1,1.1134495e-05
10520,-1,1.1253976e-05
7995,-1,8.096879e-06
3676,-1,5.216108e-05
1838,-1,7.813607e-06
2064,-1,2.8665554e-05
6676,-1,5.216108e-05
185,-1,9.131879e-06
6694,1,0.00322862
1947,-1,8.028707e-06
5622,-1,1.0904057e-05
10817,-1,5.216108e-05
6389,-1,8.235799e-06
773,-1,1.0099897e-05
4841,-1,8.579384e-06
247,-1,8.467859e-06
2097,-1,5.2462376e-05
3915,-1,7.9308575e-06
8353,-1,8.376902e-06
84,-1,8.61357e-06
532,-1,7.676595e-06
1206,-1,8.07568e-06
4033,-1,8.146777e-06
10364,-1,9.928853e-06
218,-1,5.2284842e-05
5243,-1,8.803525e-06
6252,-1,6.436014e-05
10134,-1,7.939007e-06
1551,-1,2.4220908e-05
3098,-1,5.2284842e-05
3994,-1,8.2102815e-06
6630,-1,8.614967e-06
7773,-1,7.838191e-06
8291,-1,9.112496e-06
7693,-1,8.607986e-06
687,-1,3.78774e-05
9632,-1,5.2284842e-05
5569,1,0.0027661899
10328,-1,8.516573e-06
1377,-1,8.31203e-06
3853,-1,8.61127e-06
2319,-1,5.2284842e-05
713,-1,2.0666446e-05
5228,-1,5.216108e-05
8760,-1,8.435303e-06
9016,-1,5.216108e-05
2360,-1,8.469869e-06
10031,-1,8.275015e-06
10865,-1,5.216108e-05
7079,-1,5.216108e-05
8322,-1,8.272079e-06
2572,-1,5.216108e-05
7145,-1,5.216108e-05
461,-1,8.435618e-06
4909,-1,7.7079485e-06
3203,-1,8.242289e-06
254,-1,8.027865e-06
9659,-1,1.0251437e-05
933,-1,0.00012082612
9257,-1,8.037785e-06
237,-1,1.0758516e-05
153,-1,8.249398e-06
9481,-1,1.5092739e-05
6388,-1,2.051095e-05
697,-1,5.216108e-05
1357,-1,5.216108e-05
4567,-1,5.216108e-05
4389,-1,5.216108e-05
3867,-1,8.352214e-06
467,-1,9.460481e-06
440,-1,5.2284664e-05
8930,1,0.003952888
4599,-1,5.2284664e-05
5471,-1,5.2284664e-05
7110,-1,9.130084e-06
6187,-1,1.2006811e-05
6374,-1,5.2284664e-05
2848,-1,5.2284664e-05
7131,-1,1.01959195e-05
1826,-1,8.854128e-06
4859,-1,7.836972e-06
5272,-1,5.2284664e-05
1596,-1,9.320455e-06
7357,-1,9.473329e-06
2107,-1,8.209662e-06
9817,-1,8.692104e-06
5114,-1,8.852997e-06
2136,-1,5.2284664e-05
10348,-1,9.903017e-06
7196,-1,1.0051794e-05
6256,-1,1.01295e-05
9488,-1,9.419833e-06
10885,-1,8.800017e-06
7701,-1,8.498917e-06
6892,-1,2.643846e-05
7271,-1,1.0162932e-05
895,-1,5.216108e-05
6009,-1,7.2216308e-06
7708,-1,9.292756e-06
9873,-1,1.1841051e-05
9378,-1,9.053463e-06
7592,-1,5.216108e-05
9837,-1,7.930684e-06
10438,-1,5.216108e-05
10345,-1,8.531733e-06
6998,-1,5.216108e-05
1251,-1,5.216108e-05
7054,-1,9.469561e-06
8045,-1,5.216108e-05
4488,-1,5.216108e-05
5543,-1,9.354267e-06
4446,-1,8.0457385e-06
4499,-1,8.587831e-06
3583,-1,1.0127346e-05
7423,-1,7.8187795e-06
2978,-1,5.216108e-05
2936,-1,8.951803e-06
402,-1,8.407908e-06
9205,-1,9.101717e-06
10604,-1,8.284355e-06
7262,-1,5.228474e-05
2355,-1,9.470401e-06
614,-1,9.824237e-06
10420,-1,8.108788e-06
6179,-1,5.228474e-05
4298,-1,9.112061e-06
5961,-1,8.357695e-06
3575,-1,8.280359e-06
2150,-1,1.0227561e-05
6778,-1,5.228474e-05
6948,-1,5.228474e-05
10252,-1,5.228474e-05
2908,-1,9.430277e-06
4903,-1,1.3160117e-05
10691,-1,9.006203e-06
6319,-1,9.148118e-06
3936,-1,8.223462e-06
10703,-1,8.5774445e-06
9232,-1,5.228474e-05
6803,-1,7.954885e-06
3517,-1,8.568418e-06
3925,-1,5.228474e-05
1810,-1,8.733517e-06
11134,-1,8.325278e-06
4558,-1,5.190381e-05
7274,-1,9.555434e-06
2716,-1,9.166667e-06
4506,-1,5.2161227e-05
7075,-1,8.370426e-06
8238,-1,8.546351e-06
5563,-1,8.424394e-06
6110,-1,5.2161227e-05
8053,-1,5.2161227e-05
6377,-1,9.540311e-06
9983,-1,1.08095155e-05
4757,-1,1.1448328e-05
9744,-1,8.142466e-06
10011,-1,5.2161227e-05
11051,-1,8.701658e-06
9003,-1,8.600773e-06
7339,-1,8.511839e-06
9082,-1,8.45602e-06
8450,-1,5.2161227e-05
3274,-1,8.934463e-06
1348,-1,3.880858e-05
4309,-1,9.597363e-06
10558,-1,5.2161227e-05
6253,-1,5.2161227e-05
3832,-1,1.0271282e-05
10505,-1,4.2222844e-05
10607,-1,5.180805e-05
1967,-1,8.811118e-06
3322,-1,5.2282645e-05
7039,-1,5.2282645e-05
3723,-1,5.2282645e-05
6106,-1,5.2282645e-05
3962,-1,5.2282645e-05
10147,-1,5.2282645e-05
7727,-1,5.2282645e-05
10129,-1,5.2282645e-05
10834,-1,3.1358984e-05
9557,-1,9.77438e-06
7157,-1,8.367784e-06
7154,-1,5.2282645e-05
6868,-1,8.735191e-06
7202,-1,5.2282645e-05
8748,-1,8.5332385e-06
5916,-1,3.191789e-05
5992,-1,2.3785098e-05
2851,-1,8.383336e-06
11114,-1,5.2282645e-05
8439,-1,9.555799e-06
3272,-1,9.147594e-06
6533,-1,8.259656e-06
1220,-1,7.9792135e-06
11120,-1,9.787699e-06
8466,-1,8.710534e-06
409,-1,5.2161227e-05
9712,-1,0.00022125308
376,-1,0.00015633392
9749,-1,4.535348e-05
6286,-1,8.386454e-06
7289,-1,3.156409e-05
4235,-1,9.446983e-06
8535,-1,8.183328e-06
3070,-1,1.827666e-05
9779,-1,8.474111e-06
10290,-1,1.2795331e-05
7500,-1,8.625431e-06
2988,-1,8.397963e-06
2047,-1,8.18122e-06
6126,-1,9.078346e-06
6076,-1,1.0241918e-05
9770,-1,8.748471e-06
4945,-1,8.449514e-06
9241,-1,8.552874e-06
9539,-1,9.201456e-06
158,-1,5.2161227e-05
8038,-1,8.890571e-06
2721,-1,8.394008e-06
5631,-1,8.927538e-06
7525,-1,5.180627e-05
2918,-1,9.377321e-06
772,-1,9.160305e-06
3192,-1,8.212552e-06
8678,-1,3.21616e-05
3357,-1,1.2305185e-05
2568,-1,8.795218e-06
1633,-1,9.555034e-06
5214,-1,9.350504e-06
29,-1,9.434604e-06
11144,-1,8.413868e-06
9673,-1,8.373851e-06
8385,-1,9.695179e-06
3265,-1,7.931031e-06
9356,-1,5.228474e-05
6487,-1,9.98084e-06
7057,-1,9.010352e-06
9790,-1,8.101329e-06
1615,-1,1.4326032e-05
2505,-1,2.3737872e-05
1794,-1,1.0402312e-05
4162,-1,9.0087715e-06
992,-1,9.497915e-06
7823,1,0.0030314715
6785,-1,5.228474e-05
1832,-1,1.1472155e-05
7613,-1,8.260948e-06
10895,-1,5.1918985e-05
6573,-1,5.1918985e-05
2688,-1,1.0047826e-05
4037,-1,9.000528e-06
574,-1,5.1918985e-05
6093,-1,3.33864e-05
9563,-1,2.318541e-05
6291,-1,8.243744e-06
7965,-1,5.1918985e-05
4019,-1,8.223634e-06
2857,-1,5.1918985e-05
8330,-1,8.168419e-06
5594,-1,8.650804e-06
7368,-1,5.1918985e-05
10025,-1,9.422393e-06
8618,-1,9.295264e-06
10355,-1,5.1918985e-05
10573,-1,8.887418e-06
608,-1,8.8930055e-06
8036,-1,8.26622e-06
8284,-1,9.250896e-06
1261,-1,8.370674e-06
6473,-1,1.07826845e-05
4538,-1,8.435369e-06
4133,-1,8.536601e-06
2038,-1,1.1289945e-05
2229,1,0.003900157
2222,1,0.006679621
2057,-1,1.3025094e-05
4667,-1,8.853166e-06
6154,-1,8.473941e-06
1505,-1,5.215267e-05
2137,-1,7.9650645e-06
3481,-1,5.215267e-05
7493,-1,8.734549e-06
2819,-1,7.8486555e-06
4566,-1,5.215267e-05
5590,1,0.0025566649
10769,-1,8.322222e-06
9021,-1,5.215267e-05
6896,-1,5.215267e-05
6912,-1,9.280959e-06
4401,-1,5.215267e-05
3802,-1,8.020962e-06
9494,-1,7.836075e-06
6768,-1,8.545128e-06
5383,-1,1.0930991e-05
6695,1,0.0027943929
1983,-1,8.273712e-06
5136,-1,8.620942e-06
2898,-1,1.2940752e-05
4355,-1,8.384519e-06
3534,-1,0.0002985541
690,-1,9.116338e-06
6182,-1,8.65026e-06
10473,-1,8.4740705e-06
5462,-1,8.03246e-06
7414,-1,0.00019942186
4854,-1,5.1950738e-05
3542,-1,5.1950738e-05
6059,-1,8.492371e-06
5251,-1,5.1950738e-05
5187,-1,8.998519e-06
9827,-1,8.7875715e-06
9635,-1,9.160226e-06
1017,-1,9.386097e-06
8730,-1,9.167113e-06
2854,-1,1.2643656e-05
8604,-1,8.686808e-06
6511,-1,8.414302e-06
1227,-1,9.587574e-06
1494,-1,8.269783e-06
8130,-1,9.2542405e-06
7864,-1,8.079917e-06
2638,-1,5.1950738e-05
11113,-1,9.895531e-06
7292,-1,9.569743e-06
3170,-1,8.617834e-06
10013,-1,2.0969206e-05
728,-1,5.215352e-05
9000,-1,9.754116e-06
2652,-1,8.712669e-06
1149,-1,2.7189026e-05
525,-1,3.0116369e-05
1276,-1,7.983964e-06
2008,-1,9.558616e-06
8195,-1,5.215352e-05
4211,-1,8.4845105e-06
5033,-1,9.072071e-06
8071,-1,1.02994045e-05
5556,-1,8.40628e-06
3178,-1,9.792143e-06
7403,-1,8.999265e-06
3997,-1,8.133727e-06
4327,-1,8.399749e-06
10024,-1,1.0265544e-05
7283,-1,8.8470215e-06
7256,-1,5.215352e-05
3259,-1,8.135929e-06
4249,-1,1.8259987e-05
7045,-1,7.94118e-06
5720,-1,5.1921757e-05
10523,-1,8.2151055e-06
3952,-1,5.1918985e-05
3568,-1,9.308917e-06
896,-1,5.1918985e-05
9455,-1,9.757094e-06
3903,-1,5.1918985e-05
487,-1,9.080095e-06
1530,-1,9.261622e-06
1521,-1,1.4341985e-05
1412,-1,5.1918985e-05
6057,-1,5.1918985e-05
7245,-1,8.828227e-06
11063,-1,5.1918985e-05
2557,-1,8.637351e-06
10100,-1,9.60325e-06
1722,-1,5.1918985e-05
2775,-1,5.4194756e-05
8692,-1,7.804074e-06
4532,-1,7.829226e-06
3080,-1,1.0188396e-05
5600,-1,9.33233e-06
6773,-1,5.1918985e-05
4685,-1,9.759029e-06
10779,-1,8.122952e-06
8503,-1,5.1918985e-05
6950,-1,8.512001e-06
3632,-1,9.1648835e-06
4623,-1,9.434505e-06
8346,-1,7.990698e-06
65,-1,1.2032029e-05
4294,-1,9.179816e-06
3435,-1,8.468011e-06
1852,-1,5.2152052e-05
1169,-1,5.2152052e-05
6637,-1,1.1655505e-05
190,-1,8.968474e-06
2442,-1,5.2152052e-05
10255,-1,8.599198e-06
1669,-1,5.2152052e-05
10007,-1,8.718845e-06
1087,-1,9.123157e-06
3090,-1,9.031034e-06
5400,-1,8.189472e-06
7808,1,0.004369258
3920,-1,5.2152052e-05
1112,1,0.003486993
4064,-1,5.2152052e-05
137,-1,8.821646e-06
8272,-1,9.404681e-06
6266,-1,5.2152052e-05
1769,-1,8.396994e-06
2081,-1,2.2201866e-05
6109,-1,9.885315e-06
6180,-1,8.831806e-06
1236,-1,8.45852e-06
4805,-1,8.821082e-06
5636,-1,4.062154e-05
10304,-1,5.1950687e-05
8105,-1,1.0014497e-05
741,-1,8.835555e-06
2052,-1,5.1950687e-05
9707,-1,8.494347e-06
10543,-1,8.264123e-06
7814,1,0.008030662
2192,-1,7.795714e-06
4303,-1,5.1950687e-05
6420,-1,5.1950687e-05
4463,1,0.0034270105
10480,-1,5.1950687e-05
9713,-1,5.1950687e-05
1974,-1,7.881419e-06
7837,-1,1.176378e-05
5198,-1,5.1950687e-05
1038,-1,8.098579e-06
7747,-1,8.568729e-06
3928,-1,5.1950687e-05
7144,-1,5.2013696e-05
3916,-1,8.203425e-06
2382,-1,9.7249795e-06
7322,-1,1.028632e-05
2506,-1,9.284748e-06
8576,-1,8.146015e-06
977,-1,5.215198e-05
3664,-1,1.0561712e-05
10156,-1,8.488581e-06
1571,-1,5.215198e-05
2051,-1,8.8210145e-06
8814,-1,5.215198e-05
24,-1,5.215198e-05
5855,-1,9.671705e-06
6171,-1,8.91948e-06
4152,-1,8.331307e-06
2615,-1,1.2192099e-05
3421,-1,8.021099e-06
1085,-1,9.515132e-06
7009,-1,8.049307e-06
4838,-1,1.1782868e-05
1086,-1,5.215198e-05
6964,-1,8.157241e-06
5469,-1,7.909587e-06
2565,-1,7.64617e-06
6564,-1,2.0444793e-05
9107,-1,5.1917796e-05
10812,-1,8.469037e-06
5015,-1,9.175316e-06
10109,-1,1.0047778e-05
3675,-1,5.1917796e-05
3885,-1,6.031899e-05
2961,-1,8.245607e-06
1082,-1,5.1917796e-05
6924,-1,5.1917796e-05
1599,-1,9.147943e-06
9958,-1,1.0173376e-05
7275,-1,5.1917796e-05
4755,-1,8.639047e-06
5886,-1,1.1326353e-05
6654,-1,8.411678e-06
1606,-1,8.34855e-06
9589,-1,5.1917796e-05
7671,-1,5.1917796e-05
1907,-1,8.090257e-06
7909,-1,5.1917796e-05
4712,-1,8.542806e-06
8254,-1,8.776776e-06
3428,-1,1.1112642e-05
1264,-1,9.061488e-06
8062,-1,8.245694e-06
1987,-1,1.1046887e-05
6,-1,7.800726e-06
3759,-1,9.602711e-06
5935,-1,5.2152052e-05
9460,-1,5.2152052e-05
4631,-1,8.042654e-06
6557,-1,8.823311e-06
3742,-1,8.185841e-06
10035,-1,1.7311884e-05
5574,1,0.021404028
4029,-1,2.6572761e-05
2600,-1,8.326986e-06
9309,-1,5.2152052e-05
8992,-1,9.691362e-06
5473,-1,9.14619e-06
7690,-1,9.0117965e-06
10782,-1,1.0548003e-05
10365,-1,5.2152052e-05
9848,-1,8.4932535e-06
5387,-1,8.756493e-06
9664,-1,5.2152052e-05
9484,-1,1.1042284e-05
9951,-1,7.976528e-06
7707,-1,8.461569e-06
9541,-1,3.365003e-05
6752,-1,5.2152052e-05
176,-1,7.275446e-06
7080,-1,5.2161653e-05
4935,-1,1.0833532e-05
394,-1,1.1650725e-05
325,-1,5.2161653e-05
2059,-1,9.2389055e-06
5091,-1,5.2161653e-05
7753,-1,8.509298e-06
10470,-1,5.2161653e-05
5362,-1,8.975756e-06
10628,-1,8.369532e-06
8665,-1,5.2161653e-05
5572,1,0.008753945
6837,-1,5.2161653e-05
4092,-1,9.888078e-06
624,-1,8.100587e-06
5001,-1,8.9175655e-06
154,-1,8.193816e-06
11092,-1,9.158628e-06
2488,-1,5.2161653e-05
11044,-1,9.556948e-06
9084,-1,5.274771e-05
5993,-1,7.694281e-06
11133,-1,8.08438e-06
9865,-1,8.046237e-06
8685,-1,5.260449e-05
5807,-1,9.089877e-06
834,-1,5.287748e-05
267,-1,8.600871e-06
3878,-1,9.331796e-06
8566,-1,7.789419e-06
2003,-1,9.247915e-06
2573,-1,7.884448e-06
5998,-1,8.3291225e-06
1650,-1,5.287748e-05
10298,-1,5.287748e-05
634,-1,1.2259245e-05
10149,-1,5.287748e-05
5063,-1,9.04348e-06
10582,-1,8.25812e-06
2952,-1,8.729503e-06
1144,-1,1.0338561e-05
298,-1,9.092261e-06
9272,-1,9.2527935e-06
7893,-1,5.287748e-05
5573,1,0.0041361675
1182,-1,3.4790904e-05
7573,-1,1.0282936e-05
2657,-1,8.321762e-06
5082,-1,8.3250325e-06
9235,-1,7.9236e-06
7831,-1,5.272045e-05
4886,-1,5.2746855e-05
5456,-1,8.53158e-06
4443,-1,7.73912e-06
9716,-1,2.8815342e-05
9813,-1,7.799692e-06
9891,-1,5.2746855e-05
2032,-1,7.850437e-06
206,-1,8.724509e-06
6985,-1,9.02604e-06
9909,-1,9.445723e-06
2144,-1,9.383314e-06
4716,-1,9.216219e-06
6863,-1,1.0118147e-05
6902,-1,5.2746855e-05
9836,-1,9.6999975e-06
4781,-1,5.2746855e-05
11104,-1,5.2746855e-05
6986,-1,8.390743e-06
8336,-1,9.891832e-06
1196,-1,8.690778e-06
6201,-1,9.135702e-06
5271,-1,5.0496597e-05
8483,-1,9.273058e-06
6789,-1,8.854432e-06
6916,-1,8.3804425e-06
9454,-1,5.2831732e-05
7856,-1,5.2831732e-05
587,-1,4.5772726e-05
5493,-1,5.2831732e-05
4010,-1,9.67557e-06
7178,-1,9.096068e-06
541,-1,7.989265e-06
2821,-1,8.086601e-06
4846,-1,5.2831732e-05
6598,-1,3.238449e-05
10163,-1,7.6264782e-06
10383,-1,8.962874e-06
3905,-1,5.2831732e-05
8318,-1,5.2831732e-05
1731,-1,5.2831732e-05
1917,-1,9.536671e-06
6176,-1,1.2028472e-05
462,-1,8.6840255e-06
3151,-1,8.71178e-06
6855,-1,9.809772e-06
1203,-1,5.2831732e-05
5525,-1,0.00022028899
7238,-1,5.2831732e-05
7812,1,0.007226075
5907,-1,6.343957e-05
6192,-1,8.751709e-06
7503,-1,8.259986e-06
6833,-1,7.881065e-06
9591,-1,8.960301e-06
6172,-1,8.005129e-06
7032,-1,8.879556e-06
8081,-1,4.007937e-05
181,-1,8.983223e-06
5535,-1,8.058232e-06
4743,-1,8.143421e-06
7376,-1,5.274771e-05
9605,-1,9.012768e-06
2042,-1,5.274771e-05
994,-1,5.274771e-05
963,-1,1.8565315e-05
3659,-1,7.986926e-06
8552,-1,8.942426e-06
10256,-1,9.675644e-06
8581,-1,9.072002e-06
2447,-1,8.782762e-06
5883,-1,8.091654e-06
9029,-1,9.431707e-06
9812,-1,5.274771e-05
2221,1,0.021733638
1507,-1,7.2556704e-06
7746,-1,9.0150115e-06
1863,-1,8.781841e-06
8991,-1,5.2878055e-05
2332,-1,5.2878055e-05
6415,-1,5.2878055e-05
3457,-1,7.924242e-06
7428,-1,5.2878055e-05
2166,-1,5.2878055e-05
3065,-1,9.667076e-06
1002,-1,8.479317e-06
3398,-1,9.204835e-06
10060,1,0.0041332818
9818,-1,9.0978565e-06
224,-1,8.33994e-06
2089,-1,8.254592e-06
4851,-1,8.150009e-06
8502,-1,5.2878055e-05
3077,-1,5.2878055e-05
2946,-1,8.205225e-06
6161,-1,7.9917945e-06
4817,-1,1.10389365e-05
175,-1,8.680606e-06
9157,-1,8.4046615e-06
10798,-1,9.382205e-06
9811,-1,8.627694e-06
4875,-1,8.496017e-06
4870,-1,8.5670945e-06
4223,-1,9.234747e-06
2432,-1,8.455455e-06
866,-1,8.098378e-06
4579,-1,8.142187e-06
4821,-1,8.516272e-06
1121,-1,1.1294467e-05
1379,-1,8.81633e-06
10106,-1,8.31678e-06
1402,-1,8.702156e-06
6116,-1,1.2285638e-05
8580,-1,8.245497e-06
2811,-1,8.461748e-06
8794,-1,8.898086e-06
831,-1,5.2746425e-05
1901,-1,5.2746425e-05
4183,-1,1.0310637e-05
4732,-1,8.226058e-05
7904,-1,1.2722178e-05
7989,-1,9.390449e-06
5463,-1,7.878961e-06
5107,-1,8.886189e-06
579,-1,9.648074e-06
7770,-1,2.4031868e-05
10272,-1,8.211425e-06
7766,-1,9.1007105e-06
5111,-1,8.554285e-06
7589,-1,7.40752e-05
3362,-1,1.1505857e-05
8397,-1,9.38907e-06
10896,-1,8.941052e-06
7040,-1,5.283095e-05
4952,-1,8.254907e-06
5481,-1,8.544852e-06
8847,-1,1.821705e-05
7208,-1,5.283095e-05
4665,-1,8.066213e-06
2130,-1,1.1493553e-05
4662,-1,9.545588e-06
34,-1,5.283095e-05
6849,-1,8.744584e-06
6453,-1,8.705725e-06
1865,-1,2.3035418e-05
5759,-1,5.283095e-05
3130,-1,8.399461e-06
9886,-1,5.283095e-05
8733,-1,9.395671e-06
3943,-1,8.843521e-06
5098,-1,5.283095e-05
6382,-1,9.890927e-06
738,-1,9.640477e-06
7722,-1,7.87504e-06
7327,-1,8.3718e-06
2694,-1,8.92776e-06
1625,-1,9.144306e-06
1338,-1,5.274592e-05
4751,-1,8.530904e-06
33,-1,8.238784e-06
9762,-1,9.924981e-06
7295,-1,8.526316e-06
5578,1,0.003626925
9897,-1,0.00015017125
2883,-1,1.1472789e-05
11103,-1,8.580602e-06
2463,-1,9.604752e-06
8232,-1,8.670726e-06
7732,-1,8.838664e-06
10585,-1,8.639971e-06
10673,-1,8.680838e-06
9111,-1,8.611221e-06
1919,-1,8.315352e-06
10910,-1,5.274592e-05
11165,1,0.024383249
6153,-1,9.681164e-06
2324,-1,5.274592e-05
1045,-1,5.274592e-05
4429,-1,5.274592e-05
6003,-1,9.07929e-06
4485,-1,9.545225e-06
8731,-1,8.4505855e-06
2389,-1,5.2878055e-05
9960,-1,8.902832e-06
4813,-1,8.100463e-06
6468,-1,8.8130255e-06
7081,-1,1.0008958e-05
3779,-1,5.2878055e-05
10372,-1,5.2878055e-05
4857,-1,5.2878055e-05
10732,-1,9.054923e-06
9924,-1,5.2878055e-05
837,-1,8.609792e-06
10974,-1,1.0520756e-05
56,-1,9.721826e-06
911,-1,5.2878055e-05
1631,-1,9.306085e-06
10058,1,0.0042000273
5660,-1,8.62136e-06
172,-1,9.409678e-06
6174,-1,5.2878055e-05
2603,-1,8.309398e-06
9279,-1,7.931765e-06
4930,-1,5.2878055e-05
4102,-1,9.711133e-06
6238,-1,7.9522e-06
5671,-1,8.901193e-06
1479,-1,8.741033e-06
2687,-1,8.777085e-06
2386,-1,5.1918665e-05
9080,-1,8.846009e-06
8462,-1,8.344944e-06
7627,-1,9.440806e-06
885,-1,5.1918665e-05
559,-1,9.325132e-06
5171,-1,5.1918665e-05
5995,-1,0.00036652858
2755,-1,5.1918665e-05
2713,-1,8.188254e-06
3071,-1,1.9521409e-05
10546,-1,1.1956123e-05
4747,-1,8.157895e-06
3393,-1,5.1918665e-05
9421,-1,5.1918665e-05
1647,-1,1.0214742e-05
11056,-1,8.557247e-06
2086,-1,5.1918665e-05
10693,-1,5.1918665e-05
3213,-1,9.199219e-06
2070,-1,5.1918665e-05
8793,-1,5.1912797e-05
6458,-1,5.215292e-05
1763,-1,9.660966e-06
3857,-1,9.5938585e-06
2508,-1,5.215292e-05
2224,1,0.004623937
5385,-1,1.4065908e-05
11016,-1,9.2783475e-06
2876,-1,9.1259235e-06
3558,-1,9.61908e-06
9251,-1,1.0629556e-05
8762,-1,2.6530675e-05
10781,-1,5.215292e-05
5247,-1,8.981912e-06
5496,-1,5.215292e-05
6737,-1,8.382873e-06
10289,-1,9.213688e-06
9861,-1,1.21015355e-05
5755,-1,9.463892e-06
2175,-1,9.646188e-06
10891,-1,1.068514e-05
8848,-1,8.5363e-06
69,-1,5.215292e-05
6414,-1,5.215292e-05
2104,-1,7.995561e-06
2448,-1,5.215292e-05
6021,-1,1.0138325e-05
1868,-1,9.852732e-06
6679,-1,5.195131e-05
9196,-1,8.6933305e-06
8703,-1,5.195131e-05
500,-1,8.5485035e-06
2280,-1,8.310223e-06
8543,-1,5.195131e-05
8451,-1,8.87931e-06
275,-1,7.783694e-06
1915,-1,1.1969152e-05
10978,-1,1.187261e-05
1668,-1,1.0538229e-05
7854,-1,7.769061e-06
3244,-1,5.195131e-05
1692,-1,4.88363e-05
1566,-1,1.6325213e-05
7546,-1,8.987105e-06
8987,-1,3.1097698e-05
6528,-1,9.361558e-06
9325,-1,8.570543e-06
4825,-1,1.2416642e-05
5277,-1,9.044998e-06
10727,-1,8.916486e-06
8287,-1,9.398369e-06
7767,-1,9.128883e-06
1356,-1,5.2153067e-05
9398,-1,5.2153067e-05
1296,-1,8.417062e-06
6356,-1,8.625449e-06
1850,-1,5.2153067e-05
3225,-1,5.2153067e-05
3891,-1,9.2453665e-06
11090,-1,5.2153067e-05
5732,-1,1.2058438e-05
2982,-1,9.507703e-06
8018,-1,5.2153067e-05
7165,-1,9.437925e-06
5122,-1,5.2153067e-05
2758,-1,5.2153067e-05
6483,-1,8.88646e-06
1395,-1,5.2153067e-05
3351,1,0.010788054
10794,-1,8.7637445e-06
6504,-1,8.527764e-06
2370,-1,8.373939e-06
8699,-1,5.2153067e-05
6261,-1,9.862894e-06
4965,-1,9.603974e-06
11119,-1,8.552775e-06
10104,-1,9.195508e-06
2103,-1,5.1921983e-05
9381,-1,7.671969e-06
9261,-1,9.009837e-06
1762,-1,9.749244e-06
865,-1,8.740907e-06
7928,-1,5.4095563e-05
217,-1,5.1918665e-05
1122,-1,5.1918665e-05
10102,-1,8.251428e-06
5401,-1,8.794018e-06
7558,-1,5.1918665e-05
3987,-1,9.981915e-06
7739,-1,1.1045043e-05
7762,-1,8.868681e-06
4244,-1,5.1918665e-05
2589,-1,7.997063e-06
4861,-1,5.1918665e-05
9399,-1,7.5285466e-06
2601,-1,5.1918665e-05
10616,-1,9.156453e-06
6423,-1,1.0416151e-05
8361,-1,5.1918665e-05
8423,-1,7.67112e-06
9840,-1,9.301516e-06
8550,-1,5.1918665e-05
1035,-1,8.118406e-06
4856,-1,8.819197e-06
1034,-1,8.812321e-06
8087,-1,8.368774e-06
5901,-1,5.21527e-05
3837,-1,5.21527e-05
9459,-1,8.356883e-06
2284,-1,8.670768e-06
8695,-1,5.21527e-05
3365,-1,5.21527e-05
4222,-1,9.603434e-06
5459,-1,8.043981e-06
10126,-1,5.21527e-05
862,-1,5.21527e-05
2321,-1,5.21527e-05
11040,-1,7.969069e-06
5888,-1,5.21527e-05
4180,-1,9.64068e-06
5011,-1,8.402298e-06
1089,-1,9.047016e-06
10587,-1,8.388646e-06
7273,-1,5.21527e-05
10050,1,0.017681984
4778,-1,8.352174e-06
1764,-1,8.401224e-06
10306,-1,8.144959e-06
8775,-1,5.222255e-05
1748,-1,8.903816e-06
7331,-1,9.114704e-06
6786,-1,9.070921e-06
335,-1,7.964556e-06
8285,-1,9.336095e-06
10466,-1,8.372398e-06
1468,-1,8.383008e-06
5179,-1,1.6563505e-05
1228,-1,4.45755e-05
9330,-1,5.195056e-05
7991,-1,1.9453139e-05
4996,-1,8.596124e-06
1194,-1,8.925708e-06
5308,-1,5.195056e-05
6284,-1,8.981433e-06
10927,-1,8.010642e-06
6146,-1,5.195056e-05
4616,-1,5.195056e-05
5520,-1,1.0467154e-05
2654,-1,3.8542883e-05
3062,-1,5.195056e-05
8504,-1,5.195056e-05
4142,-1,8.913502e-06
10481,-1,5.195056e-05
191,-1,8.474782e-06
5240,-1,2.345257e-05
3741,-1,8.96254e-06
2545,-1,8.243996e-06
10200,-1,5.215198e-05
7790,-1,8.2675915e-06
7896,-1,3.5143647e-05
8441,-1,5.215198e-05
9275,-1,8.533215e-06
8101,-1,5.215198e-05
4474,1,0.034849018
7183,-1,5.215198e-05
6112,-1,5.215198e-05
8864,-1,8.741741e-06
2317,-1,5.215198e-05
6621,-1,5.215198e-05
514,-1,5.215198e-05
8370,-1,9.468858e-06
3600,-1,9.504902e-06
6673,-1,1.5537553e-05
340,-1,8.255946e-06
1589,-1,8.52717e-06
1896,-1,5.215198e-05
1189,-1,9.119555e-06
8433,-1,8.169292e-06
241,-1,5.215198e-05
221,-1,8.9842e-06
10257,-1,9.639108e-06
5191,-1,8.184951e-06
10876,-1,5.191775e-05
5280,-1,9.559764e-06
7646,-1,8.4586245e-06
6877,-1,8.194082e-06
5159,-1,2.7453438e-05
5890,-1,8.299333e-05
5149,-1,5.191775e-05
6939,-1,1.0331041e-05
8089,-1,8.530644e-06
10702,-1,9.770186e-06
8054,-1,1.6124974e-05
6199,-1,1.4318827e-05
6883,-1,8.930656e-06
7060,-1,8.603956e-06
4250,-1,5.191775e-05
993,-1,8.9180085e-06
11105,-1,8.3115465e-06
4269,-1,8.597468e-06
3269,-1,1.065562e-05
5900,-1,8.544078e-06
2231,1,0.008837919
5059,-1,8.469158e-06
1316,-1,1.0232604e-05
3292,-1,9.693709e-06
5537,-1,9.29803e-06
3037,-1,8.135868e-06
6613,-1,8.703227e-06
10508,-1,9.111088e-06
6552,-1,8.48214e-06
8542,-1,8.696879e-06
5920,-1,5.21527e-05
4734,-1,1.241103e-05
3433,-1,5.21527e-05
2805,-1,9.180586e-06
3283,-1,5.21527e-05
1612,-1,9.226525e-06
4021,-1,8.207917e-06
4214,-1,8.389959e-06
10284,-1,5.21527e-05
11018,-1,5.21527e-05
9696,-1,8.3112855e-06
414,-1,8.0025175e-06
4529,-1,8.3326895e-06
50,-1,8.5972715e-06
3081,-1,5.21527e-05
1687,-1,5.21527e-05
10231,-1,8.289999e-06
8640,-1,9.418522e-06
10565,-1,1.0572636e-05
8707,-1,7.849591e-06
3492,-1,8.627818e-06
4213,-1,9.59315e-05
11155,-1,5.2160332e-05
96,-1,7.828367e-06
9767,-1,8.90442e-06
2602,-1,9.841181e-06
9144,-1,5.2160332e-05
9165,-1,8.179536e-06
5939,-1,8.467632e-06
3084,-1,1.15759885e-05
5129,-1,1.1318589e-05
8635,-1,1.30262615e-05
5527,-1,1.0286447e-05
10174,-1,8.597247e-06
6268,-1,5.2160332e-05
882,-1,5.2160332e-05
1428,-1,5.2160332e-05
1711,-1,8.646005e-06
10670,-1,8.233161e-06
5263,-1,7.8766925e-06
244,-1,5.2160332e-05
3285,-1,8.807539e-06
6534,-1,5.2160332e-05
1946,-1,9.36907e-06
3027,-1,9.272891e-06
5230,-1,9.264811e-06
10329,-1,7.892626e-06
1488,-1,5.2284813e-05
4586,-1,8.8919705e-06
11171,1,0.020911235
5974,-1,5.2284813e-05
7017,-1,5.2284813e-05
1986,-1,8.670627e-06
7185,-1,5.2284813e-05
3486,-1,5.2284813e-05
509,-1,8.7255075e-06
1396,-1,5.2284813e-05
7645,-1,8.181619e-06
8042,-1,5.2284813e-05
3199,-1,9.236061e-06
4902,-1,9.095782e-06
3907,-1,5.2284813e-05
527,-1,9.054914e-06
3073,-1,1.0908196e-05
640,-1,5.2284813e-05
10351,-1,8.61472e-06
9256,-1,7.868412e-06
5157,-1,1.0030832e-05
3326,-1,9.028855e-06
7821,1,0.016353216
6333,-1,5.216041e-05
7669,-1,9.090692e-06
7094,-1,8.412079e-06
818,-1,8.070422e-06
10800,-1,5.2160332e-05
8684,-1,8.566522e-06
7038,-1,8.576635e-06
3201,-1,7.7176865e-06
7255,-1,1.2617685e-05
7968,-1,5.2160332e-05
5618,-1,1.0168118e-05
5846,-1,8.365016e-06
9168,-1,5.2160332e-05
8358,-1,8.108548e-06
8103,-1,8.756083e-06
8802,-1,1.1260353e-05
8323,-1,5.2160332e-05
1781,-1,8.6221335e-06
10590,-1,5.2160332e-05
9980,-1,8.281654e-06
539,-1,5.2160332e-05
3709,-1,0.00022302997
422,-1,8.927045e-06
9307,-1,9.754544e-06
1671,-1,9.363094e-06
3205,-1,5.2160332e-05
10995,-1,5.2284864e-05
1744,-1,8.46328e-06
1424,-1,8.722986e-06
4611,-1,7.806457e-06
10385,-1,8.80979e-06
5604,-1,9.481589e-06
10666,-1,5.2284864e-05
8497,-1,1.40533375e-05
1257,-1,2.3336823e-05
5747,-1,5.2284864e-05
9740,-1,8.839869e-06
2628,-1,5.2284864e-05
9209,-1,5.2284864e-05
2942,-1,7.989067e-06
2776,-1,5.2284864e-05
8727,-1,5.2284864e-05
875,-1,8.181385e-06
6519,-1,9.908459e-05
2761,-1,2.9780409e-05
8558,-1,9.904425e-06
7611,-1,5.2284864e-05
8057,-1,9.179456e-06
9182,-1,7.979107e-06
9839,-1,5.2284864e-05
9349,-1,5.2284864e-05
1858,-1,8.937992e-06
5356,-1,9.306112e-06
908,-1,7.853395e-06
10164,-1,8.428461e-06
10999,-1,9.2699365e-06
766,-1,9.007637e-06
9493,-1,5.2160332e-05
9520,-1,5.2160332e-05
660,-1,8.320563e-06
5282,-1,5.2160332e-05
4451,1,0.004021101
3526,-1,2.6464117e-05
5422,-1,8.1086255e-06
2517,-1,8.423246e-06
1678,-1,5.2160332e-05
983,-1,8.668114e-06
3579,-1,1.1228108e-05
9556,-1,5.2160332e-05
195,-1,5.2160332e-05
2123,-1,9.099816e-06
10860,-1,7.929511e-06
5827,-1,8.287674e-06
8694,-1,9.599331e-06
1,-1,1.0233775e-05
1003,-1,1.2205141e-05
5817,-1,9.897551e-06
3769,-1,5.2283893e-05
11081,-1,1.189724e-05
3965,-1,1.3014105e-05
8435,-1,7.6393335e-06
10059,1,0.0061772023
6288,-1,1.1893156e-05
2452,-1,5.2283893e-05
578,-1,1.078144e-05
7784,-1,8.9169625e-06
735,-1,8.632336e-06
4384,-1,2.6581607e-05
7534,-1,8.481113e-06
8516,-1,7.4554155e-05
9219,-1,9.7554e-06
2881,-1,7.967656e-06
7949,-1,8.488031e-06
3118,-1,5.2283893e-05
10267,-1,5.2283893e-05
7759,-1,6.2265186e-05
10080,-1,5.2283893e-05
4530,-1,1.01395435e-05
10645,-1,8.506142e-06
3602,-1,5.2283893e-05
5682,-1,9.639392e-06
2826,-1,5.2283893e-05
1560,-1,0.00011396488
4141,-1,5.215929e-05
2295,-1,9.907599e-06
1693,-1,5.215929e-05
9625,-1,8.4446965e-06
2782,-1,9.8604405e-06
1704,-1,1.724337e-05
3054,-1,8.944737e-06
3436,-1,8.24188e-06
4170,-1,8.517873e-06
4218,-1,9.24028e-06
6848,-1,5.215929e-05
10295,-1,1.253842e-05
7598,-1,7.905545e-06
5244,-1,4.789483e-05
6446,-1,1.0395836e-05
4541,-1,8.467268e-06
2684,-1,1.0067786e-05
5902,-1,1.0115358e-05
6505,-1,8.263382e-06
2865,-1,5.215929e-05
159,-1,9.441238e-06
3377,-1,5.215929e-05
5042,-1,8.077344e-06
2082,-1,9.278489e-06
6727,-1,8.382017e-06
5330,-1,8.416372e-06
9068,-1,5.2283096e-05
2886,-1,5.2283096e-05
8668,-1,8.3158675e-06
10788,-1,9.349781e-06
10430,-1,1.0720457e-05
4683,-1,3.9831517e-05
377,-1,1.5539108e-05
4913,-1,9.218303e-06
9438,-1,5.2283096e-05
1540,-1,7.945529e-06
8718,-1,8.225046e-06
6046,-1,9.729404e-06
8924,1,0.0034916182
7119,-1,9.010662e-06
6805,-1,5.2283096e-05
22,-1,8.155887e-06
9530,-1,8.497191e-06
3898,-1,9.8202e-06
5337,-1,9.214417e-06
9088,-1,8.4044295e-06
2867,-1,5.2283096e-05
451,-1,5.2283096e-05
8315,-1,7.928211e-06
5490,-1,1.1315923e-05
1229,-1,5.2283096e-05
1885,-1,1.0406718e-05
3224,-1,8.653231e-06
9884,-1,8.840223e-06
1717,-1,9.8077135e-06
2091,-1,5.215929e-05
7741,-1,5.215929e-05
5516,-1,5.215929e-05
7426,-1,2.8967186e-05
9828,-1,8.991228e-06
3059,-1,9.600484e-06
10525,-1,8.356174e-06
10569,-1,1.5790023e-05
6304,-1,1.0636187e-05
4775,-1,9.373065e-06
10096,-1,1.137424e-05
8177,-1,5.215929e-05
5868,-1,5.215929e-05
5197,-1,9.3993185e-06
8712,-1,5.215929e-05
38,-1,9.029105e-06
10897,-1,5.215929e-05
6276,-1,1.1582549e-05
9830,-1,5.215929e-05
9008,-1,9.005842e-06
6586,-1,5.215929e-05
3196,-1,8.242855e-06
9092,-1,9.731789e-06
10552,-1,1.1614339e-05
4209,-1,8.363372e-06
1871,-1,5.2283893e-05
9703,-1,7.855612e-06
4402,-1,9.5215955e-06
3447,-1,8.041972e-06
3774,-1,1.2808308e-05
2702,-1,5.2283893e-05
11041,-1,8.981955e-06
3356,1,0.011171772
2379,-1,5.2283893e-05
10664,-1,7.910794e-06
6045,-1,8.663618e-06
9090,-1,3.6170124e-05
5926,-1,9.145798e-06
8369,-1,5.2283893e-05
7792,-1,5.2283893e-05
4769,-1,9.952487e-06
7265,-1,5.2283893e-05
4022,-1,7.93234e-06
5533,-1,1.0083362e-05
2126,-1,8.80979e-06
9022,-1,8.548634e-06
10624,-1,5.2283893e-05
3559,-1,8.137699e-06
7371,-1,1.1178351e-05
2449,-1,5.1918618e-05
776,-1,7.880599e-06
9160,-1,8.341849e-06
9682,-1,9.379154e-06
1362,-1,5.1918618e-05
7580,-1,5.1918618e-05
9878,-1,9.896804e-06
8156,-1,1.0423176e-05
7638,-1,5.1918618e-05
6979,-1,9.031757e-06
4360,-1,8.737224e-06
9923,-1,8.807246e-06
227,-1,8.365598e-06
9748,-1,1.1089891e-05
8223,-1,2.8660059e-05
3724,-1,2.0841897e-05
5684,-1,9.381006e-06
8959,-1,9.088351e-06
4920,-1,8.586226e-06
220,-1,8.593542e-06
2381,-1,5.1918618e-05
6313,-1,9.53619e-06
3674,-1,9.450877e-06
5957,-1,5.191176e-05
655,-1,9.084174e-06
5983,-1,9.643374e-06
2639,-1,9.7521815e-06
9174,-1,1.3584068e-05
1930,-1,3.773262e-05
9913,-1,8.402578e-06
4314,-1,9.0124495e-06
4203,-1,8.0199525e-06
7937,-1,9.879283e-06
4878,-1,9.192913e-06
240,-1,1.010194e-05
7149,-1,9.006951e-06
7099,-1,8.051449e-06
5452,-1,8.950146e-06
5576,1,0.012726846
6766,-1,5.215272e-05
6217,-1,7.792354e-06
8440,-1,8.62772e-06
88,-1,8.109074e-06
10363,-1,5.215272e-05
2913,-1,8.850583e-06
752,-1,9.12669e-06
6055,-1,5.215272e-05
6640,-1,8.6656755e-06
8280,-1,8.085259e-06
6941,-1,8.183742e-06
6911,-1,3.018378e-05
3443,-1,5.1951407e-05
3616,-1,1.2314952e-05
10719,-1,1.080599e-05
2407,-1,9.717998e-06
405,-1,8.910764e-06
3125,-1,8.563508e-06
390,-1,8.031081e-06
9435,-1,9.708725e-06
5567,1,0.004069499
5262,-1,1.5310472e-05
170,-1,8.392071e-06
5144,-1,8.973898e-06
3507,-1,8.235281e-06
4908,-1,7.3124593e-06
3035,-1,5.1951407e-05
9760,-1,5.1951407e-05
1404,-1,7.897241e-06
4515,-1,9.869538e-06
9445,-1,5.1951407e-05
1621,-1,8.049776e-06
10992,-1,5.1951407e-05
9799,-1,1.040254e-05
6793,-1,8.174381e-06
10422,-1,2.3384366e-05
10227,-1,9.0164385e-06
5442,-1,5.215213e-05
8732,-1,5.215213e-05
7769,-1,9.85073e-06
8547,-1,5.215213e-05
9504,-1,5.215213e-05
4261,-1,1.0592376e-05
9505,-1,5.215213e-05
133,-1,2.3030629e-05
667,-1,5.215213e-05
10866,-1,5.215213e-05
10046,1,0.026951317
5461,-1,9.395232e-06
8454,-1,5.215213e-05
4936,-1,8.192331e-06
7990,-1,9.13741e-06
5195,-1,5.215213e-05
10714,-1,5.215213e-05
4748,-1,8.300972e-06
3537,-1,8.484203e-06
7466,-1,1.07423575e-05
803,-1,5.215213e-05
9787,-1,5.215213e-05
6120,-1,1.0548042e-05
7324,-1,2.9925633e-05
2417,-1,5.192104e-05
2312,-1,8.573609e-06
10246,-1,5.1918618e-05
11050,-1,9.46771e-06
10832,-1,5.1918618e-05
4868,-1,9.4493535e-06
9910,-1,8.120899e-06
7479,-1,8.510986e-06
10626,-1,5.1918618e-05
1728,-1,2.5386198e-05
5468,-1,5.1918618e-05
1124,-1,5.1918618e-05
7697,-1,5.1918618e-05
5095,-1,9.060477e-06
7706,-1,1.1996968e-05
5172,-1,5.1918618e-05
5666,-1,2.9289195e-05
10052,1,0.012792651
9874,-1,5.1918618e-05
6408,-1,5.1918618e-05
6391,-1,7.968734e-06
2248,-1,8.128066e-06
7379,-1,9.265526e-06
7422,-1,8.168015e-06
2242,-1,5.1918618e-05
2976,-1,8.760636e-06
5842,-1,5.2150757e-05
10809,-1,5.2150757e-05
4873,-1,8.225085e-06
9479,-1,5.2150757e-05
9074,-1,2.7932758e-05
883,-1,8.767506e-06
8194,-1,8.697012e-06
8513,-1,9.005516e-06
10807,-1,5.2150757e-05
11125,-1,8.1506e-06
2395,-1,9.962961e-06
11052,-1,5.2150757e-05
9193,-1,8.69324e-06
3673,-1,8.528301e-06
3332,1,0.029517578
8956,-1,1.5817854e-05
7508,-1,8.601126e-06
7947,-1,9.485677e-06
3266,-1,2.1967116e-05
920,-1,9.560585e-06
1344,-1,8.3555515e-06
5524,-1,5.2150757e-05
7074,-1,9.455367e-06
6589,-1,8.000817e-06
8593,-1,7.822286e-06
729,-1,5.22215e-05
11124,-1,9.227792e-06
2714,-1,3.3300224e-05
2808,-1,8.976585e-06
4461,1,0.011328903
4592,-1,5.195041e-05
2710,-1,7.5932544e-06
8022,-1,2.995533e-05
2845,-1,1.0366601e-05
4467,1,0.016655736
10513,-1,5.195041e-05
3753,-1,9.396765e-06
6677,-1,8.0031205e-06
980,-1,8.2637525e-06
7668,-1,1.1189178e-05
8029,-1,5.195041e-05
5979,-1,4.7005295e-05
3233,-1,5.195041e-05
10185,-1,9.983277e-06
2899,-1,8.997824e-06
8675,-1,8.3163195e-06
9199,-1,7.991916e-06
9146,-1,8.625679e-06
6761,-1,8.470095e-06
8178,-1,8.349267e-06
2363,-1,8.517157e-06
5975,-1,8.453214e-06
8643,-1,7.830929e-06
6350,-1,8.098409e-06
9528,-1,5.2151034e-05
3794,-1,1.02668755e-05
4479,-1,1.00861325e-05
1555,-1,5.2151034e-05
5528,-1,5.2151034e-05
5628,-1,1.0167178e-05
9125,-1,1.0131617e-05
11181,1,0.0032445632
4904,-1,8.998185e-06
8339,-1,5.2151034e-05
7290,-1,1.0406419e-05
9981,-1,8.792945e-06
1222,-1,9.951034e-06
8327,-1,9.188364e-06
10043,1,0.00703309
910,-1,5.2151034e-05
10614,-1,8.851224e-06
4953,-1,8.558349e-06
10799,-1,5.2151034e-05
8160,-1,1.0649951e-05
311,-1,5.2151034e-05
346,-1,1.03203965e-05
1158,-1,0.000134508
3375,-1,5.191844e-05
9944,-1,1.003132e-05
8872,-1,5.191844e-05
1641,-1,9.465751e-06
9290,-1,5.191844e-05
5815,-1,8.748822e-06
8135,-1,9.05912e-06
839,-1,9.175054e-06
10232,-1,2.4184808e-05
6836,-1,1.8640387e-05
10461,-1,5.191844e-05
2026,-1,5.191844e-05
1493,-1,1.2245516e-05
4546,-1,8.076505e-06
8573,-1,9.365916e-06
142,-1,5.191844e-05
3419,-1,8.983729e-06
4325,-1,8.671768e-06
7056,-1,5.191844e-05
9554,-1,8.259726e-06
2636,-1,9.269238e-06
3849,-1,5.191844e-05
6807,-1,5.191844e-05
8246,-1,8.455697e-06
1463,-1,5.191844e-05
3787,-1,5.201382e-05
1066,-1,0.0002065961
151,-1,9.492012e-06
7240,-1,9.8717965e-06
10092,-1,5.2150757e-05
10547,-1,9.484818e-06
7439,-1,8.016718e-06
11003,-1,8.875703e-06
2281,-1,8.727206e-06
9086,-1,5.2150757e-05
8480,-1,8.205076e-06
9429,-1,8.70106e-06
6264,-1,9.7015245e-06
916,-1,5.2150757e-05
1857,-1,8.352006e-06
2581,-1,5.2150757e-05
1303,-1,7.717532e-06
4495,-1,5.2150757e-05
7206,-1,1.6382084e-05
1585,-1,1.7837054e-05
9911,-1,5.2150757e-05
1482,-1,1.4767841e-05
8349,-1,1.2115069e-05
5374,-1,1.030405e-05
6908,-1,5.2150757e-05
2191,-1,5.2150757e-05
9073,-1,9.453617e-06
5670,-1,8.574524e-06
7098,-1,8.028462e-06
5649,-1,1.0217743e-05
6779,-1,5.2161624e-05
10859,-1,5.2161624e-05
6683,-1,5.2161624e-05
9206,-1,8.706315e-06
9112,-1,3.573731e-05
2571,-1,8.48591e-06
9552,-1,8.527699e-06
150,-1,5.2161624e-05
491,-1,1.0249579e-05
7764,-1,5.2161624e-05
5905,-1,8.62275e-06
3135,-1,7.858257e-06
36,-1,2.6989317e-05
3036,-1,8.038912e-06
411,-1,8.014119e-06
9385,-1,3.7626545e-05
5380,-1,1.009052e-05
502,-1,8.566017e-06
1516,-1,5.274665e-05
1285,-1,8.010932e-06
8198,-1,5.274665e-05
496,-1,9.424834e-05
9776,-1,5.2878837e-05
9181,-1,5.2878837e-05
7621,-1,7.862537e-06
223,-1,8.360481e-05
10964,-1,8.906025e-06
9314,-1,5.2878837e-05
10282,-1,5.2878837e-05
10251,-1,9.258036e-06
444,-1,5.2878837e-05
1177,-1,7.832423e-06
9661,-1,8.7036005e-06
7134,-1,8.094194e-06
7816,1,0.03385174
2507,-1,8.915542e-06
8206,-1,5.2878837e-05
2270,-1,8.551031e-06
693,-1,5.2878837e-05
4375,-1,8.261208e-06
7125,-1,9.866197e-06
1474,-1,5.2878837e-05
1695,-1,5.2878837e-05
10665,-1,8.840384e-06
7564,-1,9.330693e-06
11078,-1,7.9555675e-06
8372,-1,8.502477e-06
2134,-1,8.4549465e-06
119,-1,9.752507e-06
8470,-1,7.841294e-06
10810,-1,7.6595925e-06
3312,-1,5.2746855e-05
6049,-1,8.4698295e-06
1390,-1,5.2746855e-05
3389,-1,8.350851e-06
8418,-1,8.764689e-06
8737,-1,5.2746855e-05
5298,-1,1.8197465e-05
9148,-1,1.0055035e-05
10175,-1,5.2746855e-05
3614,-1,0.00014700576
6047,-1,5.2746855e-05
8745,-1,8.906143e-06
8158,-1,1.0228428e-05
7745,-1,8.880064e-06
5004,-1,1.0511981e-05
6150,-1,8.606607e-06
1643,-1,9.172657e-06
5677,-1,9.143085e-06
1022,-1,5.2746855e-05
2922,-1,8.212834e-06
384,-1,9.624769e-06
4428,-1,8.437484e-06
2540,-1,8.759324e-06
7554,-1,8.337228e-06
3644,-1,5.2831532e-05
9968,-1,5.2831532e-05
164,-1,5.2831532e-05
8300,-1,1.1580803e-05
7660,-1,5.2831532e-05
2096,-1,5.2831532e-05
1213,-1,9.69494e-06
9298,-1,1.1236023e-05
6283,-1,1.2710148e-05
10537,-1,9.2465925e-06
7657,-1,0.00012413529
1384,-1,9.235558e-06
474,-1,5.2831532e-05
360,-1,9.3563995e-06
1078,-1,5.2831532e-05
4552,-1,5.2831532e-05
3691,-1,8.934285e-06
4067,-1,5.2831532e-05
4899,-1,5.2831532e-05
519,-1,8.298328e-06
3392,-1,9.546819e-06
2547,-1,9.206099e-06
8371,-1,5.2831532e-05
2380,-1,4.1509527e-05
90,-1,8.471114e-06
8570,-1,1.09073535e-05
6020,-1,5.5688994e-05
3716,-1,5.274665e-05
7012,-1,8.827461e-06
10482,-1,5.274665e-05
9517,-1,1.0762456e-05
5106,-1,5.274665e-05
4867,-1,5.274665e-05
2450,-1,7.952481e-06
9083,-1,7.7771565e-06
3732,-1,8.500774e-06
3562,-1,5.274665e-05
10292,-1,9.741231e-06
2187,-1,9.287963e-06
4415,-1,1.0182266e-05
10301,-1,1.0740227e-05
1898,-1,5.274665e-05
10870,-1,1.2898392e-05
1116,1,0.004438544
3624,-1,0.00074832566
8096,-1,9.864325e-06
4998,-1,5.274665e-05
3806,-1,5.274665e-05
10048,1,0.003473732
6556,-1,9.5037685e-06
3725,-1,8.79349e-06
637,-1,5.28806e-05
10019,-1,8.205757e-06
7064,-1,8.781037e-06
9691,-1,9.365622e-06
3967,-1,7.821345e-06
2693,-1,1.499009e-05
8199,-1,5.28806e-05
4055,-1,9.084365e-06
6961,-1,5.28806e-05
8084,-1,7.795602e-06
3539,-1,8.534427e-06
9966,-1,7.999328e-06
5970,-1,8.159801e-06
4456,1,0.013004717
1304,-1,8.96489e-06
5880,-1,5.28806e-05
6117,-1,5.28806e-05
2314,-1,5.28806e-05
9777,-1,5.28806e-05
9988,-1,1.6225442e-05
7685,-1,9.69394e-06
3245,-1,5.28806e-05
872,-1,9.220703e-06
7027,-1,9.40975e-06
9850,-1,9.368588e-06
2027,-1,8.635185e-06
3142,-1,5.274733e-05
6144,-1,9.349077e-06
5787,-1,5.274733e-05
10605,-1,5.274733e-05
6051,-1,5.274733e-05
733,-1,5.274733e-05
3145,-1,2.28973e-05
4780,-1,8.577682e-06
6326,-1,1.7606193e-05
5955,-1,9.925642e-06
3908,-1,8.19817e-06
10608,-1,8.5177335e-06
10651,-1,5.274733e-05
4956,-1,5.274733e-05
6191,-1,5.951335e-05
10754,-1,5.274733e-05
10968,-1,7.92329e-06
8518,-1,9.664329e-06
3563,-1,1.0047576e-05
10890,-1,5.274733e-05
1666,-1,5.274733e-05
3416,-1,8.3677205e-06
2880,-1,9.619521e-06
8564,-1,8.685458e-06
8840,-1,5.283065e-05
7375,-1,9.217881e-06
9914,-1,5.283065e-05
3069,-1,2.0719672e-05
2409,-1,5.283065e-05
4625,-1,5.283065e-05
3571,-1,5.283065e-05
10202,-1,8.75565e-06
9672,-1,9.663011e-06
2807,-1,8.408181e-06
6506,-1,9.069598e-06
9271,-1,5.283065e-05
2188,-1,7.464824e-06
5180,-1,8.27073e-06
5388,-1,9.146416e-06
891,-1,8.361905e-06
9701,-1,8.037686e-06
5213,-1,8.923947e-06
991,-1,1.1336846e-05
10907,-1,5.283065e-05
3006,-1,8.852642e-06
3317,-1,5.283065e-05
5593,-1,5.283065e-05
6463,-1,8.945888e-06
5835,-1,8.971168e-06
7485,-1,5.274693e-05
7666,-1,7.650423e-06
7457,-1,5.274693e-05
8092,-1,7.746955e-06
984,-1,1.1512355e-05
9642,-1,1.0699701e-05
4741,-1,8.702339e-06
6704,1,0.014897478
3117,-1,5.274693e-05
6301,-1,5.274693e-05
2476,-1,5.274693e-05
1787,-1,5.274693e-05
3522,-1,9.0090125e-06
10093,-1,8.3308305e-06
1065,-1,5.274693e-05
5118,-1,9.749569e-06
4308,-1,5.274693e-05
8120,-1,8.370777e-06
3014,-1,9.755476e-06
9364,-1,8.475453e-06
987,-1,5.274693e-05
4829,-1,1.1184312e-05
2939,-1,5.274693e-05
415,-1,8.644842e-06
8247,-1,9.5436135e-06
2951,-1,5.2946736e-05
5023,-1,8.440615e-06
5675,-1,9.599377e-06
1577,-1,5.28806e-05
1173,-1,9.9037925e-06
10280,-1,8.552727e-06
272,-1,5.28806e-05
263,-1,5.5312532e-05
7396,-1,8.560765e-06
4607,-1,5.28806e-05
5500,-1,5.28806e-05
2101,-1,8.467705e-06
1128,-1,9.64114e-06
613,-1,5.28806e-05
8467,-1,5.28806e-05
8755,-1,7.8311305e-06
4362,-1,5.28806e-05
4292,-1,5.28806e-05
11031,-1,5.28806e-05
9416,-1,5.28806e-05
9575,-1,9.351485e-06
5596,-1,8.183086e-06
9162,-1,7.5910166e-06
1138,-1,5.28806e-05
2682,-1,8.509785e-06
6772,-1,8.061137e-06
6309,-1,7.885133e-06
6649,-1,9.8036e-06
6839,-1,9.045868e-06
2875,-1,9.182057e-06
72,-1,7.918463e-06
7556,-1,8.852271e-06
1260,-1,7.904911e-06
9263,-1,9.487631e-06
2020,-1,8.78887e-06
8801,-1,5.1917403e-05
9078,-1,5.1917403e-05
4706,-1,8.205694e-06
4511,-1,5.1917403e-05
9933,-1,8.430889e-06
6823,-1,9.082988e-06
9061,-1,0.00023143712
140,-1,8.842862e-06
5379,-1,8.792341e-06
7721,-1,7.86172e-06
3714,-1,5.1917403e-05
2969,-1,5.1917403e-05
671,-1,5.1917403e-05
10494,-1,8.017735e-06
716,-1,5.1917403e-05
2981,-1,5.1917403e-05
7022,-1,4.892093e-05
520,-1,9.194272e-06
3734,-1,7.739473e-06
1970,-1,1.0224635e-05
6566,-1,8.741299e-06
10178,-1,1.0528937e-05
4388,-1,8.236907e-06
8263,-1,9.068188e-06
5322,-1,9.435504e-06
4217,-1,9.0103185e-06
3089,-1,8.496519e-06
8971,-1,7.7234745e-06
3074,-1,5.215153e-05
9775,-1,1.4802188e-05
8024,-1,8.830668e-06
5610,-1,8.522715e-06
7187,-1,5.215153e-05
5110,-1,5.215153e-05
10621,-1,8.028271e-06
1891,-1,9.236386e-06
6340,-1,9.122469e-06
5203,-1,7.934414e-06
10746,-1,8.880326e-06
1594,-1,9.3549725e-06
4946,-1,8.639296e-06
8171,-1,8.487222e-06
9265,-1,8.60152e-06
4119,-1,5.1950537e-05
6335,-1,1.2779257e-05
3661,-1,1.035996e-05
2294,-1,9.096555e-06
9667,-1,8.217754e-06
8942,1,0.023847787
6466,-1,8.7674225e-06
9425,-1,5.1950537e-05
5958,-1,7.07922e-05
4035,-1,6.9455906e-05
412,-1,7.981725e-06
5592,1,0.0034616168
11086,-1,7.881478e-06
9319,-1,5.1950537e-05
3552,-1,5.1950537e-05
6274,-1,5.1950537e-05
6413,-1,7.774316e-06
6588,-1,8.909949e-06
8607,-1,5.1950537e-05
5069,-1,5.1950537e-05
179,-1,9.78337e-06
4669,-1,2.9483042e-05
8305,-1,8.6468945e-06
7042,-1,8.506101e-06
2287,-1,5.1625262e-05
1193,-1,7.984436e-06
2350,-1,7.783619e-06
7672,-1,7.994303e-06
8260,-1,8.670578e-06
1843,-1,5.2152325e-05
7220,-1,8.366915e-06
6379,-1,8.457842e-06
9410,-1,8.839869e-06
6618,-1,9.5040505e-06
1416,-1,0.00015459336
2944,-1,0.00013751825
6527,-1,2.8071274e-05
3694,-1,5.2152325e-05
10530,-1,8.33385e-06
3636,-1,8.204614e-06
2625,-1,1.0433629e-05
7062,-1,5.2152325e-05
3458,-1,1.0030325e-05
3446,-1,1.8270464e-05
4060,-1,5.2152325e-05
2753,-1,5.2152325e-05
10921,-1,5.2152325e-05
3153,-1,8.249658e-06
287,-1,1.4497329e-05
4113,-1,0.0001267348
6886,-1,9.24467e-06
5454,-1,8.481776e-06
10087,-1,5.1917403e-05
3813,-1,8.048854e-06
821,-1,8.004113e-06
7420,-1,8.217174e-06
9882,-1,5.1917403e-05
3254,-1,8.421647e-06
9389,-1,5.1917403e-05
5903,-1,8.4661215e-06
9220,-1,8.354691e-06
9335,-1,1.0383817e-05
11110,-1,1.1531276e-05
7602,-1,9.652188e-06
8735,-1,5.1917403e-05
9657,-1,1.0236879e-05
1353,-1,8.983702e-06
6712,-1,8.406946e-06
9213,-1,9.488844e-06
3291,-1,2.6639507e-05
9042,-1,5.1917403e-05
463,-1,8.4661215e-06
7652,-1,8.469546e-06
5484,-1,1.2002954e-05
7114,-1,0.000106652675
454,-1,5.1917403e-05
7506,-1,8.858445e-06
2792,-1,7.88699e-06
3745,-1,5.215153e-05
1168,-1,5.215153e-05
10884,-1,5.215153e-05
2659,-1,5.215153e-05
8934,1,0.004623949
3052,-1,8.164712e-06
8670,-1,5.215153e-05
5390,-1,1.2365285e-05
2696,-1,5.215153e-05
8427,-1,8.4229805e-06
9420,-1,5.215153e-05
9973,-1,8.477417e-06
10689,-1,5.215153e-05
5877,-1,8.166223e-06
9436,-1,8.35242e-06
2830,-1,1.01846845e-05
2890,-1,5.215153e-05
8906,-1,8.743334e-06
854,-1,5.215153e-05
121,-1,9.438024e-06
871,-1,0.00028478968
546,-1,5.215153e-05
10205,-1,8.5081505e-05
4006,-1,8.848228e-06
9638,-1,5.195039e-05
1152,-1,9.767251e-06
10684,-1,3.1611446e-05
8495,-1,5.195039e-05
4299,-1,5.195039e-05
5185,-1,0.0020323223
8129,-1,5.195039e-05
9451,-1,5.195039e-05
2411,-1,1.0113892e-05
3509,-1,8.826459e-06
10183,-1,8.6263035e-06
5255,-1,5.195039e-05
9611,-1,5.195039e-05
6136,-1,8.959319e-06
7193,-1,0.00011750685
8682,-1,9.162638e-06
3538,-1,5.195039e-05
1627,-1,9.652547e-06
9959,-1,5.195039e-05
1761,-1,5.195039e-05
5797,-1,8.99404e-06
9521,-1,5.195039e-05
7789,-1,1.131656e-05
3731,-1,7.579703e-06
4692,-1,9.342098e-06
4339,-1,8.709944e-06
9854,-1,9.551198e-06
6072,-1,9.111879e-06
8294,-1,5.21516e-05
2391,-1,9.197771e-06
5781,-1,9.537618e-06
6299,-1,5.21516e-05
6509,-1,7.196008e-05
6225,-1,5.21516e-05
2451,-1,5.21516e-05
5683,-1,8.101506e-06
9163,-1,5.21516e-05
4015,-1,9.111957e-06
8669,-1,7.889804e-06
2061,-1,8.588773e-06
2734,-1,8.460352e-06
9466,-1,8.422242e-06
10843,-1,8.767924e-06
7421,-1,8.460521e-06
4153,-1,1.0666051e-05
2464,-1,8.2733095e-06
9518,-1,8.107698e-06
5002,-1,8.526e-06
4380,-1,9.181672e-06
3678,-1,4.537154e-05
7483,-1,0.000117948926
7952,-1,5.1917603e-05
9104,-1,8.326248e-06
3075,-1,8.1727985e-06
9108,-1,1.0378352e-05
7473,-1,5.1917603e-05
9365,-1,8.277548e-06
3868,-1,5.1917603e-05
7191,-1,5.1917603e-05
6996,-1,0.0001041934
6498,-1,1.0798646e-05
5690,-1,5.1917603e-05
598,-1,8.5038955e-06
2202,-1,8.176705e-06
10113,-1,5.1917603e-05
4782,-1,5.1917603e-05
4537,-1,5.1917603e-05
3445,-1,8.638158e-06
7948,-1,9.316696e-06
5762,-1,5.1917603e-05
2924,-1,8.212059e-06
8399,-1,5.1917603e-05
3431,-1,5.1917603e-05
10685,-1,9.5116575e-06
4717,-1,8.12155e-06
2578,-1,9.446452e-06
8408,-1,9.820855e-06
5465,-1,8.199014e-06
10522,-1,9.039788e-06
533,-1,8.490298e-06
8143,-1,5.215153e-05
7210,-1,8.954518e-06
9669,-1,8.548161e-06
6097,-1,9.089097e-06
6332,-1,8.80901e-06
15,-1,2.0610865e-05
4585,-1,8.416236e-06
3688,-1,1.1420794e-05
8241,-1,7.973257e-06
3695,-1,9.490808e-06
234,-1,9.047533e-06
8296,-1,9.33996e-06
5005,-1,2.1350266e-05
5264,-1,9.957642e-06
4050,-1,8.48269e-06
8637,-1,9.403219e-06
1171,-1,1.3843828e-05
8170,-1,8.626905e-06
8219,-1,9.255132e-06
526,-1,7.830092e-05
3701,-1,5.215153e-05
7090,-1,5.215153e-05
6682,-1,5.216061e-05
2935,-1,9.411392e-06
351,-1,8.326691e-06
265,-1,5.216061e-05
6426,-1,9.342143e-06
2279,-1,8.030591e-06
8787,-1,9.201097e-06
10367,-1,8.481848e-06
3315,-1,1.0004178e-05
3595,-1,5.216061e-05
3525,-1,8.304201e-06
6183,-1,2.2551063e-05
3472,-1,5.216061e-05
5895,-1,8.581838e-06
8568,-1,5.216061e-05
4680,-1,5.216061e-05
10731,-1,8.32697e-06
4702,-1,5.216061e-05
9186,-1,8.164821e-06
7710,-1,1.1309978e-05
10930,-1,2.2005612e-05
7715,-1,8.334764e-06
8978,-1,9.28357e-06
5290,-1,9.400861e-06
4708,-1,8.712203e-06
3172,-1,9.685882e-06
5482,-1,9.924593e-06
2345,-1,5.2281826e-05
2885,-1,1.1485204e-05
1445,-1,5.2281826e-05
9063,-1,0.00021953609
10203,-1,5.2281826e-05
6842,-1,8.618319e-06
10833,-1,5.2281826e-05
2040,-1,1.7154587e-05
8784,-1,5.2281826e-05
216,-1,5.2281826e-05
5209,-1,8.65281e-06
7557,-1,1.0219029e-05
8975,-1,5.2281826e-05
10168,-1,4.896679e-05
8569,-1,8.923836e-06
3749,-1,1.0397769e-05
5694,-1,5.2281826e-05
7648,-1,8.871032e-06
5547,-1,8.391511e-06
10551,-1,5.2281826e-05
8438,-1,8.51771e-06
4189,-1,8.113267e-06
9095,-1,3.107555e-05
825,-1,5.2281826e-05
3183,-1,1.1060201e-05
8651,-1,9.644791e-06
4804,-1,5.216061e-05
10320,-1,8.107774e-06
47,-1,5.216061e-05
4951,-1,8.26328e-06
10540,-1,5.216061e-05
7130,-1,5.216061e-05
2905,-1,1.5268915e-05
8602,-1,8.073247e-06
6931,-1,1.6169615e-05
642,-1,8.635827e-06
8154,-1,8.872023e-06
7383,-1,1.0762671e-05
2265,-1,8.765959e-06
4028,-1,9.59383e-06
1774,-1,9.049898e-06
7397,-1,2.0181511e-05
10726,-1,5.216061e-05
1535,-1,9.28697e-06
10863,-1,5.216061e-05
5010,-1,5.216061e-05
8982,-1,5.216061e-05
6517,-1,5.216061e-05
5774,-1,5.216061e-05
7453,-1,8.913825e-06
8650,-1,4.0861774e-05
1789,-1,7.8766925e-06
7387,-1,5.228312e-05
6035,-1,5.228312e-05
1451,-1,5.228312e-05
4539,-1,8.598681e-06
7974,-1,8.446992e-06
2514,-1,1.1334953e-05
10339,-1,8.275622e-06
5031,-1,1.1063282e-05
1090,-1,8.881088e-06
7227,-1,8.293012e-06
3082,-1,8.426492e-06
8286,-1,9.37336e-06
6747,-1,8.231747e-06
2864,-1,7.690752e-06
283,-1,5.228312e-05
577,-1,5.228312e-05
3735,-1,8.613578e-06
2480,-1,8.042823e-06
2799,-1,9.029381e-06
2200,-1,5.228312e-05
11162,1,0.005230617
5310,-1,7.819033e-06
8162,-1,9.115416e-06
4985,-1,8.19137e-06
8379,-1,9.011109e-06
7953,-1,7.94265e-06
9937,-1,5.216061e-05
3892,-1,5.216061e-05
4603,-1,8.177827e-06
9778,-1,8.019019e-06
5996,-1,8.364242e-06
2622,-1,8.527138e-06
9361,-1,8.678917e-06
9588,-1,5.216061e-05
1792,-1,8.830349e-06
4753,-1,5.216061e-05
8990,-1,8.110389e-06
189,-1,8.432095e-06
9323,-1,5.216061e-05
10309,-1,5.216061e-05
5943,-1,8.835074e-06
7305,-1,7.701246e-06
10541,-1,5.216061e-05
6432,-1,8.541641e-06
5918,-1,5.216061e-05
9023,-1,5.216061e-05
9699,-1,8.397227e-06
2165,-1,5.216061e-05
3223,-1,5.216061e-05
10698,-1,7.917949e-06
6024,-1,1.1472275e-05
2228,1,0.0061432663
6616,-1,8.366484e-06
499,-1,5.2282747e-05
10228,-1,5.2282747e-05
1841,-1,9.263282e-06
10356,-1,8.512261e-06
9771,-1,5.2282747e-05
8759,-1,8.847764e-06
731,-1,1.0005657e-05
10344,-1,1.05939325e-05
8836,-1,5.2282747e-05
8617,-1,9.850713e-06
4465,1,0.0028177442
10081,-1,8.396458e-06
3839,-1,9.466491e-06
9192,-1,1.0773495e-05
2160,-1,1.1590626e-05
2973,-1,9.026659e-06
8559,-1,5.2282747e-05
6337,-1,5.2282747e-05
4950,-1,8.139989e-06
4560,-1,5.2282747e-05
2660,-1,8.320032e-06
864,-1,8.641125e-06
5081,-1,8.6435475e-06
7159,-1,8.5948695e-06
9377,-1,1.0076413e-05
2427,-1,8.822983e-06
9387,-1,1.1013342e-05
1091,-1,1.1284412e-05
10841,-1,1.1928199e-05
1637,-1,5.216078e-05
7743,-1,9.421774e-06
1713,-1,1.3531651e-05
7458,-1,5.216078e-05
1767,-1,9.21114e-06
9018,-1,8.974454e-06
786,-1,1.8595945e-05
2927,-1,0.0002798016
2193,-1,5.216078e-05
6811,-1,0.00026639088
4517,-1,1.07348305e-05
5776,-1,1.0790708e-05
7738,-1,1.0160461e-05
9714,-1,8.790966e-06
6052,-1,1.0361264e-05
6122,-1,8.576496e-06
4312,-1,8.032429e-06
692,-1,1.2648721e-05
8310,-1,9.534289e-06
6756,-1,7.244342e-05
1081,-1,8.346194e-06
2000,-1,8.216579e-06
6095,-1,9.053938e-06
6013,-1,5.2282023e-05
8517,-1,9.198605e-06
7977,-1,5.2282023e-05
369,-1,5.2282023e-05
7572,-1,8.78639e-06
7431,-1,8.425495e-06
545,-1,5.2282023e-05
7667,-1,9.624246e-06
9024,-1,1.0304376e-05
281,-1,8.248816e-06
9085,-1,5.2282023e-05
4912,-1,9.759029e-06
7073,-1,8.998571e-06
1161,-1,5.2282023e-05
9986,-1,5.2282023e-05
10286,-1,8.39641e-06
3352,1,0.004219839
10806,-1,8.958233e-06
9336,-1,5.2282023e-05
2707,-1,8.080888e-06
9512,-1,9.975549e-06
364,-1,8.962874e-06
7647,-1,5.216078e-05
9628,-1,5.216078e-05
3560,-1,1.4183144e-05
11095,-1,8.828647e-06
2816,-1,8.417593e-06
7465,-1,1.0911078e-05
8598,-1,8.411735e-06
7945,-1,9.778146e-06
8954,-1,8.655674e-06
5581,1,0.0028488124
4730,-1,8.435103e-06
2384,-1,5.216078e-05
6354,-1,8.578082e-06
7594,-1,5.216078e-05
1166,-1,8.626378e-06
10500,-1,5.216078e-05
10986,-1,9.044635e-06
4216,-1,0.00040386105
5177,-1,1.1852631e-05
1721,-1,8.02589e-06
2005,-1,9.187392e-06
3150,-1,8.55431e-06
10361,-1,1.2014668e-05
4497,-1,5.216078e-05
5315,-1,7.93607e-06
6874,-1,8.293802e-06
9514,-1,8.053607e-06
7205,-1,9.61852e-06
2343,-1,8.542782e-06
4679,-1,3.5193036e-05
1937,-1,8.8879015e-06
5794,-1,5.2282747e-05
4771,-1,8.877261e-06
9303,-1,8.219055e-06
10869,-1,7.883433e-06
8218,-1,8.224952e-06
3617,-1,9.538846e-06
10238,-1,9.166396e-06
6218,-1,1.0735608e-05
7450,-1,7.735711e-06
8697,-1,5.2282747e-05
8320,-1,8.110497e-06
6701,1,0.011212221
6490,-1,5.2282747e-05
7102,-1,1.0392852e-05
8532,-1,5.2282747e-05
5894,-1,5.2282747e-05
4394,-1,8.0249565e-06
10265,-1,8.384863e-06
5626,-1,8.396434e-06
1489,-1,3.6433998e-05
6005,-1,5.6304987e-05
1360,-1,5.1918043e-05
5360,-1,8.437428e-06
2004,-1,5.1918043e-05
9896,-1,5.1918043e-05
9405,-1,8.124711e-06
7321,-1,7.820779e-06
8713,-1,5.1918043e-05
8578,-1,8.569219e-06
9264,-1,8.3897185e-06
7891,-1,8.838015e-06
9327,-1,5.1918043e-05
6913,-1,8.807472e-06
7836,-1,9.317283e-06
214,-1,1.4297792e-05
6360,-1,5.1918043e-05
1680,-1,5.1918043e-05
8176,-1,9.10144e-06
8196,-1,8.19634e-06
6522,-1,5.1918043e-05
6536,-1,1.1681433e-05
7249,-1,5.1918043e-05
9587,-1,5.1918043e-05
7200,-1,8.706581e-06
10501,-1,8.394913e-06
9950,-1,8.9728455e-06
2984,-1,5.215225e-05
2663,-1,5.331886e-05
6826,-1,8.530253e-06
342,-1,8.059077e-06
486,-1,9.112339e-06
5491,-1,8.4789535e-06
6693,1,0.004148594
8845,-1,5.215225e-05
6615,-1,5.215225e-05
3024,-1,8.32516e-06
5099,-1,9.396783e-06
9055,-1,9.378475e-06
4801,-1,8.0370655e-06
4333,-1,9.359211e-06
8496,-1,9.785982e-06
8613,-1,5.215225e-05
10868,-1,5.215225e-05
5439,-1,9.395322e-06
610,-1,8.428051e-06
1167,-1,5.215225e-05
4205,-1,8.4004305e-06
888,-1,8.310881e-06
7307,-1,8.383496e-06
11062,-1,8.918561e-06
2459,-1,8.412729e-06
11152,-1,5.1950956e-05
2225,1,0.0042091487
5972,-1,8.572751e-06
9283,-1,5.1950956e-05
6481,-1,9.210718e-06
8344,-1,9.695817e-06
1310,-1,8.821848e-06
4596,-1,8.4207395e-06
4424,-1,8.710284e-06
5922,-1,5.1950956e-05
5988,-1,7.94265e-06
9908,-1,8.684845e-06
3046,-1,1.014823e-05
7198,-1,5.1950956e-05
1399,-1,1.0136536e-05
5050,-1,8.671413e-06
6510,-1,2.8703358e-05
4791,-1,5.1950956e-05
4728,-1,7.93265e-06
4275,-1,8.461771e-06
4496,-1,8.720974e-06
3972,-1,8.429352e-06
8380,-1,1.05155805e-05
8584,-1,9.090796e-06
7415,-1,8.394192e-06
2630,-1,8.509298e-06
4238,-1,8.746802e-06
6073,-1,0.00013855532
5148,-1,3.8149832e-05
1926,-1,9.41273e-06
10451,-1,5.2152274e-05
11182,1,0.03866386
7651,-1,5.2152274e-05
2457,-1,4.0772262e-05
3811,-1,9.502862e-06
7461,-1,8.652587e-06
1198,-1,1.1668206e-05
8795,-1,8.387255e-06
1979,-1,5.2152274e-05
2591,-1,5.2152274e-05
5623,-1,9.291639e-06
1271,-1,7.843156e-06
371,-1,8.607255e-06
9864,-1,8.502233e-06
8072,-1,3.7765276e-05
2426,-1,5.2152274e-05
5291,-1,5.2152274e-05
9120,-1,7.6208435e-06
10603,-1,5.2152274e-05
3869,-1,8.75428e-06
11027,-1,8.6513655e-06
8925,1,0.00350591
5152,-1,8.458956e-06
5758,-1,9.890351e-06
1859,-1,8.366475e-06
8597,-1,5.1918043e-05
9200,-1,8.974728e-06
7801,-1,5.1918043e-05
9761,-1,5.1918043e-05
6100,-1,8.1965045e-06
3719,-1,9.11081e-06
9226,-1,5.1918043e-05
6585,-1,1.0362944e-05
10709,-1,8.530221e-06
8612,-1,8.566499e-06
802,-1,8.97841e-06
8301,-1,5.1918043e-05
4931,-1,8.4263875e-06
8157,-1,1.4517619e-05
5637,-1,8.291801e-06
2870,-1,8.69887e-06
5783,-1,9.254196e-06
557,-1,0.00012563072
8490,-1,5.1918043e-05
2058,-1,5.1918043e-05
6641,-1,5.1918043e-05
10424,-1,8.267607e-06
10000,-1,9.1382035e-06
6844,-1,9.782726e-06
8673,-1,5.2151478e-05
10633,-1,5.2151478e-05
8966,-1,1.7111435e-05
1165,-1,5.2151478e-05
10631,-1,5.2151478e-05
3707,-1,5.2151478e-05
7023,-1,8.578467e-06
9751,-1,5.2151478e-05
9004,-1,5.2151478e-05
8422,-1,7.84368e-06
10392,-1,9.981144e-06
4379,-1,5.2151478e-05
9730,-1,8.426275e-06
1590,-1,5.2151478e-05
5784,-1,5.2151478e-05
5117,-1,7.759465e-06
4056,-1,7.831168e-06
256,-1,5.2151478e-05
4588,-1,7.891008e-06
9340,-1,9.536144e-06
2760,-1,8.037142e-06
10162,-1,5.2151478e-05
476,-1,5.222165e-05
10515,-1,8.291327e-06
3733,-1,8.7560675e-06
7881,-1,1.7101596e-05
5426,-1,1.0727534e-05
6296,-1,5.1949348e-05
10261,-1,1.9610481e-05
5936,-1,5.1949348e-05
2920,-1,8.56154e-06
10925,-1,7.653137e-06
7733,-1,8.852541e-06
4687,-1,2.2281854e-05
5530,-1,5.1949348e-05
5019,-1,8.92713e-06
1093,1,0.0064345244
3313,-1,8.021673e-06
4001,-1,1.0174792e-05
808,-1,1.2466178e-05
2998,-1,0.00024688875
7468,-1,9.242087e-06
8460,-1,7.762226e-06
4421,-1,5.1949348e-05
6602,-1,9.63274e-06
7663,-1,5.1949348e-05
9608,-1,5.1949348e-05
9612,-1,8.60893e-06
1280,-1,7.931084e-06
7972,-1,5.2152227e-05
9243,-1,8.847342e-06
3650,-1,1.0108164e-05
67,-1,7.723342e-06
9224,-1,5.2152227e-05
1311,-1,8.712569e-06
3760,-1,1.15021385e-05
4927,-1,5.2152227e-05
2080,-1,5.2152227e-05
9427,-1,8.871007e-06
1541,-1,5.2152227e-05
4164,-1,8.128671e-06
5252,-1,8.001648e-06
7795,-1,5.2152227e-05
5437,-1,1.0722286e-05
4059,-1,5.2152227e-05
9718,-1,8.313647e-06
7162,-1,9.547847e-06
8913,-1,5.2152227e-05
7860,-1,5.2152227e-05
8499,-1,8.543727e-06
4505,-1,1.0135124e-05
1487,-1,9.770055e-06
5086,-1,5.2152227e-05
1050,-1,5.2319156e-05
3286,-1,8.6484615e-06
7531,-1,8.2767665e-06
9747,-1,9.3433455e-06
10488,-1,8.230719e-06
1688,-1,1.0621834e-05
5591,1,0.0060063438
6862,-1,1.0286398e-05
3836,-1,8.51222e-06
46,-1,8.183968e-06
560,-1,5.1918392e-05
10167,-1,5.1918392e-05
1694,-1,5.1918392e-05
1840,-1,8.363014e-06
4304,-1,8.397146e-06
6959,-1,0.000136405
10661,-1,8.437074e-06
7299,-1,1.0583027e-05
435,-1,8.265573e-06
6815,-1,1.1912828e-05
1882,-1,9.608875e-06
6609,-1,7.816156e-05
4975,-1,5.1918392e-05
10132,-1,8.507464e-06
3957,-1,5.1918392e-05
4735,-1,5.1918392e-05
858,-1,2.045874e-05
3511,-1,9.0441345e-06
6909,-1,8.451908e-06
1837,-1,9.403085e-06
449,-1,8.328764e-06
4772,-1,7.6058504e-06
10786,-1,5.2151478e-05
10405,-1,8.716658e-06
4968,-1,9.529707e-06
4052,-1,5.2151478e-05
5561,-1,6.6022825e-05
1134,-1,9.762278e-06
7170,-1,8.781899e-06
5562,-1,9.291355e-06
6079,-1,9.232018e-06
694,-1,8.47842e-06
3208,-1,5.2151478e-05
1900,-1,8.147803e-06
6037,-1,5.2151478e-05
1283,-1,0.00011066748
7760,-1,5.2151478e-05
4280,-1,5.2151478e-05
7199,-1,8.656978e-06
979,-1,1.07370415e-05
4739,-1,8.720217e-06
544,-1,8.20866e-06
8039,-1,8.173119e-06
6329,-1,7.736131e-06
10225,-1,5.2160383e-05
6363,-1,5.2160383e-05
949,-1,8.4922085e-06
3804,-1,8.789969e-06
201,-1,9.218083e-06
10111,-1,5.2160383e-05
6903,-1,5.2160383e-05
1187,-1,5.2160383e-05
9995,-1,9.9737035e-06
6907,-1,5.2160383e-05
3303,-1,8.583164e-06
6041,-1,5.2160383e-05
10497,-1,6.041349e-05
10914,-1,8.387887e-06
1120,-1,5.2160383e-05
4749,-1,5.2160383e-05
7807,1,0.012408106
3349,1,0.0025567177
7606,-1,7.868599e-06
7681,-1,8.373013e-06
4976,-1,9.114878e-06
7399,-1,8.543638e-06
2496,-1,5.274806e-05
9735,-1,9.58209e-06
1776,-1,8.200429e-06
10749,-1,9.482494e-06
9863,-1,7.2442665e-05
9569,-1,5.287904e-05
4031,-1,1.0224771e-05
2985,-1,5.287904e-05
5224,-1,5.287904e-05
2954,-1,8.105224e-06
3222,-1,1.0779087e-05
7980,-1,9.575019e-06
11121,-1,9.882186e-06
6396,-1,9.280967e-06
9938,-1,5.287904e-05
2787,-1,9.401166e-06
6665,-1,2.7836304e-05
6881,-1,5.287904e-05
7731,-1,7.73425e-06
2595,-1,8.34898e-06
6222,-1,5.287904e-05
10591,-1,5.287904e-05
5536,-1,9.704384e-06
9935,-1,8.85923e-06
9114,-1,7.5893813e-06
6963,-1,5.287904e-05
5229,-1,8.703849e-06
6604,-1,1.2142864e-05
5952,-1,5.27466e-05
10594,-1,8.200453e-06
4526,-1,5.27466e-05
10924,-1,9.31301e-06
5689,-1,5.27466e-05
10948,-1,5.27466e-05
4178,-1,8.0644595e-06
6147,-1,7.98139e-06
5151,-1,5.27466e-05
11047,-1,8.190534e-06
229,-1,5.27466e-05
5358,-1,7.988678e-06
2524,-1,9.5300975e-06
4316,-1,5.27466e-05
1719,-1,1.8746148e-05
7176,-1,1.0982264e-05
1439,-1,1.0472267e-05
4138,-1,5.27466e-05
7987,-1,9.1953325e-06
3240,-1,9.083213e-06
8079,-1,5.27466e-05
8972,-1,1.3728315e-05
4602,-1,8.553184e-06
6890,-1,5.27466e-05
4472,1,0.0045020017
9499,-1,2.8523966e-05
9651,-1,8.87688e-06
4810,-1,2.7632748e-05
9147,-1,9.643898e-06
2397,-1,0.00023028378
8416,-1,0.00011766816
9161,-1,8.338175e-06
9736,-1,8.558096e-06
1480,-1,5.2831987e-05
1406,-1,7.79448e-06
1417,-1,9.983496e-06
9623,-1,9.49145e-06
8464,-1,9.069147e-06
1895,-1,1.0446631e-05
3797,-1,8.749205e-06
4185,-1,8.521804e-06
7728,-1,5.1594405e-05
5632,-1,9.108169e-06
10253,-1,7.9613965e-06
9229,-1,5.2831987e-05
2965,-1,9.292126e-06
431,-1,5.2831987e-05
9189,-1,8.3587e-06
1162,-1,8.6488e-06
6918,-1,8.900242e-06
7726,-1,8.9049545e-06
4195,-1,8.035019e-06
380,-1,9.011926e-06
5851,-1,8.725957e-06
768,-1,7.908803e-06
1388,-1,5.274806e-05
5575,1,0.004196515
9991,-1,8.514388e-06
2673,-1,1.2730492e-05
812,-1,8.9051155e-06
8003,-1,7.778788e-06
10136,-1,1.0002717e-05
1948,-1,8.7005465e-06
6760,-1,5.274806e-05
10130,-1,5.274806e-05
1570,-1,1.779961e-05
10288,-1,8.745702e-06
1293,-1,1.2357847e-05
8979,-1,7.86283e-06
3623,-1,1.6420241e-05
8562,-1,9.733293e-06
4361,-1,5.274806e-05
760,-1,9.628203e-06
2856,-1,5.274806e-05
4058,-1,1.386881e-05
8822,-1,5.274806e-05
5892,-1,5.2879193e-05
1341,-1,8.6187465e-06
1845,-1,9.907041e-06
10880,-1,5.2879193e-05
3489,-1,8.291343e-06
7207,-1,5.2879193e-05
420,-1,8.4358835e-06
6685,1,0.003358489
1597,-1,5.2879193e-05
953,-1,8.3270015e-06
5068,-1,8.5811425e-06
2053,-1,6.256769e-05
836,-1,5.2879193e-05
7911,-1,2.3772374e-05
304,-1,1.7180357e-05
4581,-1,2.4017114e-05
5823,-1,8.586553e-06
4795,-1,5.2879193e-05
6421,-1,7.812339e-06
2563,-1,9.557375e-06
3816,-1,8.084696e-06
10287,-1,8.9657115e-06
6287,-1,9.442282e-06
6655,-1,8.308963e-06
5226,-1,8.464959e-06
2647,-1,7.885855e-06
832,-1,8.737315e-06
7720,-1,8.853486e-06
6488,-1,1.0088711e-05
10704,-1,8.622644e-06
6409,-1,3.617835e-05
9977,-1,9.207952e-06
6700,1,0.0052091153
3977,-1,2.7022179e-05
4471,1,0.01041842
8926,1,0.0097476505
9610,-1,4.942137e-05
1235,-1,3.4134355e-05
1043,-1,5.2746953e-05
2301,-1,8.643349e-06
6674,-1,3.040623e-05
6118,-1,9.2345535e-06
11023,-1,1.8232953e-05
548,-1,8.468835e-06
2204,-1,8.556333e-06
737,-1,9.296816e-06
3566,-1,8.843529e-06
9527,-1,5.2746953e-05
4453,1,0.0036803202
5311,-1,8.313488e-06
1756,-1,5.2746953e-05
3252,-1,5.282342e-05
4540,-1,9.125567e-06
6906,-1,9.534617e-06
1273,-1,8.579531e-06
7109,-1,5.2833144e-05
7969,-1,8.372167e-06
7581,-1,8.303117e-06
5216,-1,8.316185e-06
10415,-1,3.27772e-05
8970,-1,7.765736e-06
8090,-1,5.2833144e-05
11017,-1,5.2833144e-05
8264,-1,3.8564816e-05
9048,-1,5.2833144e-05
4398,-1,1.01139985e-05
9486,-1,5.2833144e-05
7046,-1,8.7867165e-06
7662,-1,5.2833144e-05
8106,-1,5.2833144e-05
4334,-1,5.2833144e-05
196,-1,9.852684e-06
3834,-1,5.2833144e-05
4733,-1,9.141708e-06
5841,-1,5.2833144e-05
4252,-1,8.4364865e-06
5417,-1,8.662676e-06
3091,-1,7.931969e-06
10820,-1,7.930903e-06
1581,-1,9.646842e-06
852,-1,8.312339e-06
3561,-1,1.0602423e-05
4528,-1,5.2746153e-05
2403,-1,1.012754e-05
23,-1,5.2746153e-05
413,-1,5.2746153e-05
8857,-1,5.2746153e-05
1510,-1,9.033385e-06
1576,-1,8.343949e-06
9268,-1,5.2746153e-05
8325,-1,8.65616e-06
9300,-1,1.0753417e-05
4961,-1,8.935111e-06
4418,-1,7.4432846e-06
4514,-1,7.901866e-06
2967,-1,1.2829201e-05
6545,-1,8.535136e-06
9500,-1,8.982589e-06
8095,-1,8.417962e-06
4686,-1,5.2746153e-05
9655,-1,9.175956e-06
710,-1,8.956046e-06
10887,-1,7.929685e-06
472,-1,5.2879193e-05
1952,-1,9.144079e-06
3413,-1,5.2879193e-05
1894,-1,1.1103362e-05
4219,-1,5.2879193e-05
8867,-1,0.00016975294
9732,-1,8.558308e-06
2624,-1,8.134278e-06
10828,-1,8.173641e-06
4086,-1,1.0383054e-05
6267,-1,7.900157e-06
6050,-1,5.2879193e-05
3969,-1,5.2879193e-05
661,-1,8.327391e-06
10524,-1,5.2879193e-05
6133,-1,1.3280978e-05
954,-1,1.0044721e-05
8482,-1,5.2879193e-05
7007,-1,7.848664e-06
4396,-1,5.2879193e-05
9468,-1,9.432742e-06
751,-1,5.2879193e-05
9540,-1,9.556264e-06
2400,-1,9.12575e-06
7742,-1,5.2879193e-05
547,-1,8.47214e-06
7382,-1,5.191864e-05
6162,-1,1.0044702e-05
9115,-1,5.191864e-05
6102,-1,5.191864e-05
2658,-1,5.9130827e-05
5941,-1,5.191864e-05
7142,-1,8.351178e-06
3236,-1,5.191864e-05
4917,-1,9.954413e-06
9094,-1,9.00046e-06
4478,-1,5.191864e-05
6867,-1,8.306031e-06
4165,-1,9.924015e-06
4738,-1,8.584687e-06
1738,-1,8.251373e-06
495,-1,0.00019268584
9045,-1,5.191864e-05
9218,-1,5.191864e-05
2820,-1,5.191864e-05
10437,-1,9.062343e-06
8976,-1,9.609966e-06
8871,-1,1.0672033e-05
6476,-1,9.195903e-06
3939,-1,7.5290054e-06
8808,-1,5.19129e-05
9145,-1,8.412978e-06
10117,-1,7.888367e-06
10894,-1,9.49012e-06
747,-1,8.902305e-06
4898,-1,5.215322e-05
5606,-1,8.667982e-06
6433,-1,1.0795267e-05
9299,-1,2.4401681e-05
5523,-1,7.966022e-06
9543,-1,8.632369e-06
4518,-1,5.215322e-05
3621,-1,5.215322e-05
10315,-1,1.13601145e-05
10493,-1,5.215322e-05
7917,-1,9.200614e-06
4329,-1,5.215322e-05
2567,-1,3.443825e-05
8837,-1,8.668858e-06
4583,-1,1.7835267e-05
5691,-1,7.9434685e-06
7695,-1,8.91578e-06
2116,-1,1.0118774e-05
4504,-1,8.578082e-06
10004,-1,1.4795788e-05
10340,-1,5.215322e-05
9060,-1,1.0786819e-05
7825,1,0.005730226
4800,-1,9.748378e-06
2500,-1,9.016336e-06
9821,-1,8.172744e-06
7754,-1,8.062283e-06
5800,-1,8.429924e-06
5049,-1,5.195091e-05
7761,-1,8.130439e-06
7499,-1,5.195091e-05
9546,-1,8.424997e-06
10745,-1,8.487813e-06
143,-1,7.915382e-06
4279,-1,9.401793e-06
8725,-1,5.195091e-05
3543,-1,8.754406e-06
5047,-1,5.195091e-05
6239,-1,1.2550563e-05
4977,-1,8.050121e-06
3164,-1,5.195091e-05
4638,-1,3.9978797e-05
2667,-1,8.608003e-06
3023,-1,5.195091e-05
7361,-1,5.195091e-05
5715,-1,5.195091e-05
6386,-1,5.16263e-05
543,-1,1.0288673e-05
4901,-1,8.429506e-06
3490,-1,1.105027e-05
7215,-1,1.005257e-05
7194,-1,9.611065e-06
9057,-1,9.390494e-06
8919,-1,5.215287e-05
6801,-1,8.036988e-06
607,-1,5.215287e-05
7336,-1,8.781833e-06
2656,-1,5.215287e-05
3042,-1,9.968854e-06
8312,-1,5.215287e-05
6210,-1,1.0833924e-05
2618,-1,8.90802e-06
3131,-1,8.563541e-06
8067,-1,1.0097297e-05
2838,-1,7.908584e-06
10611,-1,5.215287e-05
8863,-1,5.215287e-05
4578,-1,5.215287e-05
9276,-1,5.215287e-05
4003,-1,8.084095e-06
1215,-1,9.141987e-06
2483,-1,8.380394e-06
2642,-1,8.454447e-06
5238,-1,7.703958e-06
982,-1,7.880667e-06
9875,-1,5.191864e-05
7628,-1,1.4111005e-05
6692,1,0.0038876222
4246,-1,9.249988e-06
10207,-1,9.79333e-05
8700,-1,7.8057565e-06
8627,-1,9.176892e-06
9957,-1,8.526601e-06
32,-1,8.270462e-06
1481,-1,8.801443e-06
6278,-1,1.0735546e-05
9401,-1,5.191864e-05
7892,-1,1.01329115e-05
2878,-1,9.778053e-06
3629,-1,8.310817e-06
309,-1,5.191864e-05
397,-1,8.481557e-06
388,-1,5.191864e-05
10269,-1,5.191864e-05
2176,-1,2.017139e-05
3663,-1,0.00010625197
6496,-1,8.515874e-06
10676,-1,8.233632e-06
7223,-1,5.21523e-05
3460,-1,8.561386e-06
7802,-1,7.823538e-06
1782,-1,8.51097e-06
7197,-1,9.882535e-06
2203,-1,5.21523e-05
3204,-1,1.2687212e-05
7409,-1,8.879327e-06
5488,-1,5.21523e-05
8262,-1,8.624651e-06
3992,-1,8.692344e-06
2139,-1,8.46798e-06
1557,-1,8.651935e-06
1385,-1,5.21523e-05
4095,-1,9.108005e-06
8228,-1,9.160226e-06
5948,-1,9.026505e-06
5287,-1,8.4902085e-06
1716,-1,9.562181e-05
9523,-1,8.308987e-06
10516,-1,5.21523e-05
9411,-1,9.601931e-06
1659,-1,5.21523e-05
10088,-1,5.21523e-05
6308,-1,1.8166107e-05
4093,-1,5.22222e-05
8943,1,0.0075527155
6149,-1,5.1950312e-05
1811,-1,8.677692e-06
9249,-1,5.1950312e-05
9922,-1,7.814873e-06
5678,-1,2.4925843e-05
2276,-1,5.1950312e-05
6981,-1,5.1950312e-05
9894,-1,0.00011345737
8880,-1,9.6459125e-06
10821,-1,5.1950312e-05
5021,-1,5.1950312e-05
7683,-1,8.466203e-06
3513,-1,1.0199168e-05
9089,-1,5.1950312e-05
10620,-1,5.1950312e-05
2415,-1,1.1879791e-05
10580,-1,5.1950312e-05
4510,-1,8.030951e-06
9409,-1,5.1950312e-05
8626,-1,5.1950312e-05
7068,-1,5.1950312e-05
4516,-1,9.265676e-06
2561,-1,8.601453e-06
8722,-1,2.8237153e-05
7960,-1,2.830824e-05
11169,1,0.0036546334
880,-1,1.2227416e-05
5062,-1,8.386022e-06
639,-1,8.447718e-06
861,-1,5.2151874e-05
9939,-1,9.211852e-06
1620,-1,2.1443213e-05
5532,-1,8.3778295e-06
445,-1,5.2151874e-05
10332,-1,9.510877e-06
10349,-1,7.647177e-06
2408,-1,5.2151874e-05
2118,-1,5.2151874e-05
3631,-1,1.072557e-05
799,-1,8.36697e-06
7072,-1,8.474459e-06
4313,-1,8.152948e-06
2172,-1,8.344729e-06
51,-1,8.4526655e-06
8883,-1,1.7545324e-05
7536,-1,8.104976e-06
5279,-1,7.880997e-06
8967,-1,1.8308052e-05
1604,-1,1.1101107e-05
3551,-1,5.2318806e-05
6984,-1,8.016588e-06
7820,1,0.0066521727
3441,-1,9.63047e-06
7123,-1,5.1917526e-05
3311,-1,8.809362e-06
4620,-1,3.9893406e-05
9329,-1,8.078923e-06
4212,-1,8.694035e-06
8210,-1,7.860153e-06
4896,-1,1.0073136e-05
2348,-1,9.0056365e-06
3704,-1,5.1917526e-05
4891,-1,8.074394e-06
2912,-1,5.1917526e-05
8749,-1,9.172202e-06
9058,-1,8.392791e-06
9101,-1,8.521073e-06
10397,-1,8.647514e-06
3295,-1,8.9797795e-06
5719,-1,7.786537e-06
6007,-1,2.8571707e-05
3887,-1,8.276869e-06
1246,-1,8.8722e-06
528,-1,5.1917526e-05
10599,-1,8.99525e-06
7392,-1,8.6312575e-06
8275,-1,5.21523e-05
8817,-1,9.865528e-06
4348,-1,5.21523e-05
5605,-1,9.368721e-06
4234,-1,5.21523e-05
9681,-1,8.121194e-06
6660,-1,1.1035651e-05
2597,-1,5.21523e-05
3521,-1,5.21523e-05
7913,-1,5.21523e-05
9640,-1,8.973042e-06
4330,-1,0.00019359308
8452,-1,5.21523e-05
8058,-1,5.21523e-05
5328,-1,9.1708725e-06
554,-1,8.862002e-06
10201,-1,5.21523e-05
2163,-1,1.0587145e-05
2275,-1,7.938969e-06
6160,-1,3.078214e-05
2297,-1,9.084313e-06
4032,-1,8.22245e-06
6269,-1,9.268921e-06
10641,-1,9.831538e-06
3814,-1,1.46101975e-05
3103,-1,1.2414345e-05
7306,-1,8.894091e-06
7875,-1,5.2159812e-05
10484,-1,1.1315718e-05
6794,-1,9.736551e-06
683,-1,1.9529147e-05
1844,-1,3.733021e-05
7247,-1,1.05940535e-05
8623,-1,5.2159812e-05
2869,-1,8.869637e-06
3260,-1,1.03256925e-05
126,-1,1.2183428e-05
3846,-1,7.9748925e-06
878,-1,5.2159812e-05
1176,-1,5.2159812e-05
4726,-1,1.2409386e-05
1593,-1,6.1197745e-05
10418,-1,7.832138e-06
6054,-1,8.476981e-06
187,-1,5.2159812e-05
7691,-1,0.00015560463
7338,-1,1.1326666e-05
10131,-1,5.2159812e-05
2167,-1,1.1125228e-05
3729,-1,8.481784e-06
8188,-1,9.70779e-06
5973,-1,5.2283744e-05
484,-1,1.1405892e-05
2532,-1,5.2283744e-05
2576,-1,9.1244965e-06
10706,-1,2.2324948e-05
10293,-1,5.2283744e-05
8234,-1,5.2283744e-05
3188,-1,5.2283744e-05
4065,-1,9.902111e-06
11036,-1,5.2283744e-05
9495,-1,9.063017e-06
4179,-1,5.2283744e-05
7020,-1,8.570543e-06
9759,-1,1.0228575e-05
4682,-1,1.1879961e-05
2722,-1,8.207087e-06
5854,-1,5.2283744e-05
1941,-1,5.2283744e-05
5764,-1,7.906285e-06
6764,-1,5.2283744e-05
9974,-1,7.5321154e-06
3518,-1,9.648378e-06
2114,-1,5.2283744e-05
627,-1,1.0691012e-05
7043,-1,5.2283744e-05
7417,-1,5.278137e-05
70,-1,2.3904677e-05
8832,-1,9.616072e-06
3747,-1,5.2159812e-05
7021,-1,8.029312e-06
6417,-1,5.2159812e-05
8329,-1,5.2159812e-05
4425,-1,5.2159812e-05
3944,-1,5.2159812e-05
2431,-1,8.243343e-06
536,-1,5.2159812e-05
3934,-1,8.559745e-06
5223,-1,7.866145e-06
8660,-1,2.9952102e-05
6119,-1,9.413798e-06
10369,-1,1.1331322e-05
10443,-1,8.108772e-06
9422,-1,9.013068e-06
11094,-1,5.2159812e-05
5225,-1,8.400935e-06
1595,-1,8.433197e-06
1364,-1,8.590264e-06
2768,-1,8.020778e-06
9318,-1,5.2159812e-05
10395,-1,9.058594e-06
9630,-1,8.689841e-06
10082,-1,5.2282947e-05
4671,-1,5.2282947e-05
8396,-1,5.2282947e-05
5201,-1,5.2282947e-05
2035,-1,2.5464835e-05
10138,-1,9.163031e-06
4831,-1,5.2282947e-05
2780,-1,0.00012819949
8066,-1,5.2282947e-05
5014,-1,8.388086e-06
4486,-1,8.830837e-06
5962,-1,9.0446e-06
6627,-1,8.494963e-06
9774,-1,8.336441e-06
10764,-1,2.5683286e-05
1499,-1,8.199045e-06
5135,-1,8.555713e-06
7309,-1,5.2282947e-05
1063,-1,8.003953e-06
8963,-1,9.2194105e-06
7717,-1,5.2282947e-05
9719,-1,5.2282947e-05
3963,-1,5.2282947e-05
3596,-1,9.118589e-06
3383,-1,5.2282947e-05
5820,-1,8.217723e-06
6094,-1,8.489124e-06
6970,-1,9.017892e-06
4208,-1,5.2159812e-05
698,-1,5.2159812e-05
4696,-1,9.164892e-06
6543,-1,8.643861e-06
7246,-1,5.2159812e-05
10146,-1,8.116641e-06
7224,-1,8.304764e-06
1543,-1,8.344698e-06
8138,-1,8.72589e-06
2738,-1,8.149691e-06
8962,-1,8.5394995e-06
5222,-1,8.255018e-06
8922,1,0.02277262
3261,-1,5.2159812e-05
9781,-1,7.846418e-06
10297,-1,9.514325e-06
7425,-1,8.64035e-06
418,-1,7.81161e-06
8508,-1,8.698705e-06
6548,-1,9.874178e-06
6195,-1,8.595082e-06
7641,-1,8.6581e-06
6205,-1,5.2159812e-05
10390,-1,5.2283744e-05
147,-1,8.587905e-06
4876,-1,5.2283744e-05
1202,-1,2.3378389e-05
3531,-1,7.6508095e-06
1823,-1,8.526032e-06
3726,-1,1.0003549e-05
8231,-1,8.113499e-06
7763,-1,8.714597e-06
2178,-1,8.623392e-06
2528,-1,5.2283744e-05
3703,-1,5.2283744e-05
8259,-1,8.013576e-06
6016,-1,8.741433e-06
416,-1,1.0771584e-05
48,-1,5.2283744e-05
7344,-1,9.013954e-06
7698,-1,5.2283744e-05
3818,-1,5.2283744e-05
2074,-1,5.2283744e-05
5928,-1,4.7669582e-05
10517,-1,5.2283744e-05
5552,-1,5.2283744e-05
6581,-1,5.2283744e-05
10741,-1,9.485686e-06
7518,-1,8.10452e-06
10893,-1,7.969533e-06
3123,-1,8.048623e-06
10370,-1,9.5465e-06
2895,-1,8.335415e-06
774,-1,8.038575e-06
1759,-1,5.215849e-05
958,-1,5.215849e-05
8293,-1,9.757019e-06
11141,-1,9.547592e-06
3171,-1,8.294308e-06
2836,-1,8.89521e-06
8615,-1,9.290628e-06
3216,-1,1.2247851e-05
4884,-1,5.215849e-05
7348,-1,8.371711e-06
7065,-1,9.805095e-06
7404,-1,5.215849e-05
6347,-1,9.340628e-06
2849,-1,7.796702e-06
8881,-1,5.215849e-05
4071,-1,2.3505618e-05
8132,-1,8.323024e-06
109,-1,5.215849e-05
2570,-1,9.139598e-06
1241,-1,5.215849e-05
5870,-1,5.4004457e-05
3527,-1,8.922569e-06
6435,-1,8.424467e-06
8619,-1,5.2803527e-05
900,-1,8.793372e-06
8886,-1,5.2283045e-05
8309,-1,8.542343e-06
6947,-1,8.542977e-06
5297,-1,5.2283045e-05
9404,-1,5.2283045e-05
635,-1,5.2283045e-05
290,-1,5.2283045e-05
8512,-1,8.664618e-06
4343,-1,5.2283045e-05
1414,-1,5.2283045e-05
10532,-1,5.2283045e-05
4792,-1,5.2283045e-05
6411,-1,5.2283045e-05
820,-1,8.695918e-06
9788,-1,5.2283045e-05
10379,-1,5.2283045e-05
7507,-1,5.2283045e-05
1677,-1,5.2283045e-05
10408,-1,1.0146565e-05
3999,-1,5.2283045e-05
5585,1,0.0044805985
260,-1,1.0941098e-05
3405,-1,9.147839e-05
2921,-1,7.958892e-06
8125,-1,8.345167e-06
5611,-1,3.1199066e-05
8317,-1,8.69678e-06
5333,-1,5.215849e-05
3318,-1,5.215849e-05
321,-1,9.5046025e-06
3777,-1,5.215849e-05
9853,-1,7.779375e-06
5009,-1,8.526097e-06
1263,-1,8.4951325e-06
8891,-1,5.215849e-05
5705,-1,1.0650388e-05
1714,-1,8.313528e-06
3382,-1,5.215849e-05
2606,-1,2.3950603e-05
7489,-1,8.402578e-06
385,-1,5.215849e-05
6653,-1,5.215849e-05
7609,-1,5.215849e-05
3902,-1,8.8655015e-06
685,-1,5.215849e-05
6882,-1,5.215849e-05
4543,-1,1.0750689e-05
10333,-1,5.2283744e-05
2992,-1,9.380013e-06
3881,-1,5.2283744e-05
6197,-1,7.809994e-06
1012,-1,8.752193e-06
2841,-1,5.2283744e-05
5134,-1,8.051956e-06
9814,-1,2.6528653e-05
10054,1,0.0039957236
5872,-1,8.31977e-06
4300,-1,8.663288e-06
1109,1,0.026169
7285,-1,5.2283744e-05
8205,-1,5.2283744e-05
3549,-1,1.0034534e-05
9270,-1,8.6482805e-06
2917,-1,5.2283744e-05
